{"learner":{"attributes":{"scikit_learn":"{\"_estimator_type\": \"classifier\"}"},"feature_names":[],"feature_types":[],"gradient_booster":{"model":{"gbtree_model_param":{"num_parallel_tree":"1","num_trees":"500"},"iteration_indptr":[0,1,2,3,4,5,6,7,8,9,10,11,12,13,14,15,16,17,18,19,20,21,22,23,24,25,26,27,28,29,30,31,32,33,34,35,36,37,38,39,40,41,42,43,44,45,46,47,48,49,50,51,52,53,54,55,56,57,58,59,60,61,62,63,64,65,66,67,68,69,70,71,72,73,74,75,76,77,78,79,80,81,82,83,84,85,86,87,88,89,90,91,92,93,94,95,96,97,98,99,100,101,102,103,104,105,106,107,108,109,110,111,112,113,114,115,116,117,118,119,120,121,122,123,124,125,126,127,128,129,130,131,132,133,134,135,136,137,138,139,140,141,142,143,144,145,146,147,148,149,150,151,152,153,154,155,156,157,158,159,160,161,162,163,164,165,166,167,168,169,170,171,172,173,174,175,176,177,178,179,180,181,182,183,184,185,186,187,188,189,190,191,192,193,194,195,196,197,198,199,200,201,202,203,204,205,206,207,208,209,210,211,212,213,214,215,216,217,218,219,220,221,222,223,224,225,226,227,228,229,230,231,232,233,234,235,236,237,238,239,240,241,242,243,244,245,246,247,248,249,250,251,252,253,254,255,256,257,258,259,260,261,262,263,264,265,266,267,268,269,270,271,272,273,274,275,276,277,278,279,280,281,282,283,284,285,286,287,288,289,290,291,292,293,294,295,296,297,298,299,300,301,302,303,304,305,306,307,308,309,310,311,312,313,314,315,316,317,318,319,320,321,322,323,324,325,326,327,328,329,330,331,332,333,334,335,336,337,338,339,340,341,342,343,344,345,346,347,348,349,350,351,352,353,354,355,356,357,358,359,360,361,362,363,364,365,366,367,368,369,370,371,372,373,374,375,376,377,378,379,380,381,382,383,384,385,386,387,388,389,390,391,392,393,394,395,396,397,398,399,400,401,402,403,404,405,406,407,408,409,410,411,412,413,414,415,416,417,418,419,420,421,422,423,424,425,426,427,428,429,430,431,432,433,434,435,436,437,438,439,440,441,442,443,444,445,446,447,448,449,450,451,452,453,454,455,456,457,458,459,460,461,462,463,464,465,466,467,468,469,470,471,472,473,474,475,476,477,478,479,480,481,482,483,484,485,486,487,488,489,490,491,492,493,494,495,496,497,498,499,500],"tree_info":[0,0,0,0,0,0,0,0,0,0,0,0,0,0,0,0,0,0,0,0,0,0,0,0,0,0,0,0,0,0,0,0,0,0,0,0,0,0,0,0,0,0,0,0,0,0,0,0,0,0,0,0,0,0,0,0,0,0,0,0,0,0,0,0,0,0,0,0,0,0,0,0,0,0,0,0,0,0,0,0,0,0,0,0,0,0,0,0,0,0,0,0,0,0,0,0,0,0,0,0,0,0,0,0,0,0,0,0,0,0,0,0,0,0,0,0,0,0,0,0,0,0,0,0,0,0,0,0,0,0,0,0,0,0,0,0,0,0,0,0,0,0,0,0,0,0,0,0,0,0,0,0,0,0,0,0,0,0,0,0,0,0,0,0,0,0,0,0,0,0,0,0,0,0,0,0,0,0,0,0,0,0,0,0,0,0,0,0,0,0,0,0,0,0,0,0,0,0,0,0,0,0,0,0,0,0,0,0,0,0,0,0,0,0,0,0,0,0,0,0,0,0,0,0,0,0,0,0,0,0,0,0,0,0,0,0,0,0,0,0,0,0,0,0,0,0,0,0,0,0,0,0,0,0,0,0,0,0,0,0,0,0,0,0,0,0,0,0,0,0,0,0,0,0,0,0,0,0,0,0,0,0,0,0,0,0,0,0,0,0,0,0,0,0,0,0,0,0,0,0,0,0,0,0,0,0,0,0,0,0,0,0,0,0,0,0,0,0,0,0,0,0,0,0,0,0,0,0,0,0,0,0,0,0,0,0,0,0,0,0,0,0,0,0,0,0,0,0,0,0,0,0,0,0,0,0,0,0,0,0,0,0,0,0,0,0,0,0,0,0,0,0,0,0,0,0,0,0,0,0,0,0,0,0,0,0,0,0,0,0,0,0,0,0,0,0,0,0,0,0,0,0,0,0,0,0,0,0,0,0,0,0,0,0,0,0,0,0,0,0,0,0,0,0,0,0,0,0,0,0,0,0,0,0,0,0,0,0,0,0,0,0,0,0,0,0,0,0,0,0,0,0,0,0,0,0,0,0,0,0,0,0,0,0,0,0,0,0,0,0,0,0,0,0,0,0,0,0,0,0,0,0,0,0,0,0,0,0,0,0,0,0,0,0,0,0,0,0,0,0],"trees":[{"base_weights":[2.4970625E-1,4.0095264E-1,-3.791749E-1,7.394128E-1,3.13852E-1,-9.440805E-1,4.9597323E-1,1.0474244E0,6.2325543E-1,5.9324014E-1,2.2646452E-1,-1.1993147E0,4.713536E-1,6.965208E-1,-3.8510332E-1,4.9662828E-1,1.0730033E0,6.7489624E-1,-5.4275435E-1,7.0736915E-1,1.4629813E-1,3.2332343E-1,-1.0513133E-1,-3.235805E-1,-1.5431299E0,-1.588342E-1,9.960323E-1,3.5028785E-1,9.741478E-1,-1.3628787E0,5.063832E-1,1.079244E-1,-7.243781E-1,9.239946E-1,1.2024051E0,7.418715E-1,-9.193906E-2,-2.8063064E0,1.9162019E-1,9.4449025E-1,4.7620878E-1,-1.1605772E0,4.1491348E-1,8.420619E-1,2.5482613E-1,-2.3841746E-1,6.2294203E-1,9.6281713E-1,-5.6178296E-1,2.0509733E-1,-1.6744801E0,5.4508764E-1,-2.3361998E0,-2.463903E-2,1.0416924E0,1.0036962E0,-3.1766483E-1,1.1046864E0,5.1868886E-1,9.401125E-2,-2.0828454E0,-2.561185E-1,7.235637E-1,-8.480348E-2,-2.463903E-2,-1.3640079E-1,1.0886245E-1,1.2253524E-1,1.7272793E-2,1.0364427E-1,6.468036E-2,-6.852629E-2,8.916693E-2,-3.5197008E-1,-2.463903E-2,9.2579156E-2,-7.8015946E-2,1.1170405E-1,7.0952915E-2,5.3642124E-2,-1.4501347E-1,2.4094628E-2,-3.5157225E-1,7.972291E-2,6.852594E-3,3.2777E-2,1.0218187E-1,1.5962249E-2,6.936439E-2,-8.7141834E-2,-3.5003868E-3,-7.36927E-2,8.13809E-2,-5.686472E-2,1.1244418E-1,-2.7957687E-1,-1.2561306E-2,8.1350125E-2,-1.8017271E-1,-1.8410586E-1,-3.2063805E-2,7.442209E-2,-1.3084015E-1,9.023209E-2,-3.9234993E-1,5.9060086E-2,1.1514433E-1,1.07176065E-1,-8.480348E-2,7.442209E-2,-1.1053913E-1,-8.689671E-3,1.13146566E-1,1.057806E-1,-4.8080646E-2,-3.590871E-1,-9.6912995E-2,8.6576186E-2,-5.3208876E-2],"categories":[],"categories_nodes":[],"categories_segments":[],"categories_sizes":[],"default_left":[0,0,0,0,0,0,0,0,0,0,0,0,0,0,0,0,0,0,0,0,0,0,0,0,0,0,0,0,0,0,0,0,0,0,0,0,0,0,0,0,0,0,0,0,0,0,0,0,0,0,0,0,0,0,0,0,0,0,0,0,0,0,0,0,0,0,0,0,0,0,0,0,0,0,0,0,0,0,0,0,0,0,0,0,0,0,0,0,0,0,0,0,0,0,0,0,0,0,0,0,0,0,0,0,0,0,0,0,0,0,0,0,0,0,0,0,0,0,0],"id":0,"left_children":[1,3,5,7,9,11,13,15,17,19,21,23,25,27,29,31,33,35,37,39,41,43,45,47,49,51,53,55,57,59,61,-1,63,65,67,69,71,73,75,77,79,81,83,85,87,89,91,93,95,97,99,101,103,-1,105,107,109,111,113,-1,115,-1,117,-1,-1,-1,-1,-1,-1,-1,-1,-1,-1,-1,-1,-1,-1,-1,-1,-1,-1,-1,-1,-1,-1,-1,-1,-1,-1,-1,-1,-1,-1,-1,-1,-1,-1,-1,-1,-1,-1,-1,-1,-1,-1,-1,-1,-1,-1,-1,-1,-1,-1,-1,-1,-1,-1,-1,-1],"loss_changes":[3.6364777E2,9.060144E1,3.6701028E2,2.1883484E1,5.973831E1,1.6346844E2,5.1775955E1,1.876648E0,2.8056793E1,2.9668472E1,6.008262E1,1.1461212E2,2.3173428E1,2.2517876E1,4.8363964E1,7.505413E0,2.0237427E0,2.2707932E1,3.3879147E1,2.5020523E1,4.2601818E1,5.120804E1,4.123736E1,3.3955555E1,6.3323425E1,5.1064915E1,2.4192123E0,4.71889E1,7.2405396E0,4.565623E1,2.1398357E1,0E0,6.8775415E-3,3.1574074E1,1.7658615E0,1.0685776E1,2.1794315E1,8.222305E0,1.2194761E1,8.465881E0,2.8303734E1,6.924055E1,1.322333E1,1.523085E1,5.3357124E1,4.6145405E1,1.7677168E1,4.9477787E0,8.991844E1,2.5955048E1,5.6964844E1,1.0334045E1,4.53111E1,0E0,1.1497879E0,7.78125E0,4.5878334E1,3.3294678E0,1.7299278E1,0E0,3.076336E1,0E0,5.4918137E0,0E0,0E0,0E0,0E0,0E0,0E0,0E0,0E0,0E0,0E0,0E0,0E0,0E0,0E0,0E0,0E0,0E0,0E0,0E0,0E0,0E0,0E0,0E0,0E0,0E0,0E0,0E0,0E0,0E0,0E0,0E0,0E0,0E0,0E0,0E0,0E0,0E0,0E0,0E0,0E0,0E0,0E0,0E0,0E0,0E0,0E0,0E0,0E0,0E0,0E0,0E0,0E0,0E0,0E0,0E0,0E0],"parents":[2147483647,0,0,1,1,2,2,3,3,4,4,5,5,6,6,7,7,8,8,9,9,10,10,11,11,12,12,13,13,14,14,15,15,16,16,17,17,18,18,19,19,20,20,21,21,22,22,23,23,24,24,25,25,26,26,27,27,28,28,29,29,30,30,32,32,33,33,34,34,35,35,36,36,37,37,38,38,39,39,40,40,41,41,42,42,43,43,44,44,45,45,46,46,47,47,48,48,49,49,50,50,51,51,52,52,54,54,55,55,56,56,57,57,58,58,60,60,62,62],"right_children":[2,4,6,8,10,12,14,16,18,20,22,24,26,28,30,32,34,36,38,40,42,44,46,48,50,52,54,56,58,60,62,-1,64,66,68,70,72,74,76,78,80,82,84,86,88,90,92,94,96,98,100,102,104,-1,106,108,110,112,114,-1,116,-1,118,-1,-1,-1,-1,-1,-1,-1,-1,-1,-1,-1,-1,-1,-1,-1,-1,-1,-1,-1,-1,-1,-1,-1,-1,-1,-1,-1,-1,-1,-1,-1,-1,-1,-1,-1,-1,-1,-1,-1,-1,-1,-1,-1,-1,-1,-1,-1,-1,-1,-1,-1,-1,-1,-1,-1,-1],"split_conditions":[2.0752875E-2,2.271445E-4,4.4196784E-2,5.4606427E-3,5.7229437E-3,-3.2294024E-2,3.4081478E-2,-4.444249E-2,2.965458E-1,2.3798677E-1,-2.8417865E-2,-3.6867443E-2,-2.9875264E-2,1.1552384E-1,-4.6991445E-2,-4.6145003E-2,9.8470435E-2,-2.7133094E-3,1.7298636E-1,-3.8071954E-1,3.5229897E-1,1.556412E-2,2.463719E-2,-3.5624185E-1,1.8505517E-2,-2.5190769E-2,-3.505016E-2,1.1797666E-1,2.1774009E-1,-4.5239583E-2,-1.9869794E-1,1.079244E-1,-4.036178E-2,-3.3334333E-1,5.1459115E-2,-1.2112454E-2,5.688712E-2,2.0959507E-1,2.86193E-1,4.9459168E-1,1.5884596E-1,4.7587004E-2,2.597502E-1,-8.820083E-2,2.408657E-2,-6.747826E-1,1.3277182E-1,-9.378712E-3,-3.3903807E-1,-2.9424375E-1,2.6196228E-2,-3.0463189E-2,2.168236E-1,-2.463903E-2,-8.4133185E-2,1.971282E-1,-1.14372205E-2,4.4413194E-2,-3.4855735E-1,9.401125E-2,4.7658224E-2,-2.561185E-1,-1.4057738E-1,-8.480348E-2,-2.463903E-2,-1.3640079E-1,1.0886245E-1,1.2253524E-1,1.7272793E-2,1.0364427E-1,6.468036E-2,-6.852629E-2,8.916693E-2,-3.5197008E-1,-2.463903E-2,9.2579156E-2,-7.8015946E-2,1.1170405E-1,7.0952915E-2,5.3642124E-2,-1.4501347E-1,2.4094628E-2,-3.5157225E-1,7.972291E-2,6.852594E-3,3.2777E-2,1.0218187E-1,1.5962249E-2,6.936439E-2,-8.7141834E-2,-3.5003868E-3,-7.36927E-2,8.13809E-2,-5.686472E-2,1.1244418E-1,-2.7957687E-1,-1.2561306E-2,8.1350125E-2,-1.8017271E-1,-1.8410586E-1,-3.2063805E-2,7.442209E-2,-1.3084015E-1,9.023209E-2,-3.9234993E-1,5.9060086E-2,1.1514433E-1,1.07176065E-1,-8.480348E-2,7.442209E-2,-1.1053913E-1,-8.689671E-3,1.13146566E-1,1.057806E-1,-4.8080646E-2,-3.590871E-1,-9.6912995E-2,8.6576186E-2,-5.3208876E-2],"split_indices":[24,36,60,24,24,63,24,85,91,2,12,77,63,6,63,85,6,18,31,23,14,62,57,27,62,77,12,75,13,85,53,0,12,46,29,18,89,3,2,74,3,29,93,76,62,19,4,18,27,97,57,63,1,0,76,13,18,60,99,0,60,0,45,0,0,0,0,0,0,0,0,0,0,0,0,0,0,0,0,0,0,0,0,0,0,0,0,0,0,0,0,0,0,0,0,0,0,0,0,0,0,0,0,0,0,0,0,0,0,0,0,0,0,0,0,0,0,0,0],"split_type":[0,0,0,0,0,0,0,0,0,0,0,0,0,0,0,0,0,0,0,0,0,0,0,0,0,0,0,0,0,0,0,0,0,0,0,0,0,0,0,0,0,0,0,0,0,0,0,0,0,0,0,0,0,0,0,0,0,0,0,0,0,0,0,0,0,0,0,0,0,0,0,0,0,0,0,0,0,0,0,0,0,0,0,0,0,0,0,0,0,0,0,0,0,0,0,0,0,0,0,0,0,0,0,0,0,0,0,0,0,0,0,0,0,0,0,0,0,0,0],"sum_hessian":[3.820605E3,3.0801816E3,7.4042346E2,6.2889594E2,2.4512856E3,4.499216E2,2.9050186E2,1.7002562E2,4.5887033E2,5.826609E2,1.8686246E3,3.8131476E2,6.860683E1,2.3680957E2,5.3692303E1,8.451566E0,1.6157405E2,4.3981287E2,1.9057453E1,4.6367612E2,1.18984795E2,1.446212E3,4.224126E2,1.0804747E2,2.732673E2,3.1486227E1,3.7120605E1,1.06390305E2,1.3041927E2,2.5354698E1,2.8337605E1,5.8000946E0,2.6514716E0,7.888129E1,8.269277E1,4.0451514E2,3.5297718E1,3.9772074E0,1.5080245E1,2.273637E2,2.3631241E2,1.972032E1,9.926447E1,1.6737415E2,1.2788379E3,3.5761725E2,6.479534E1,1.6405981E1,9.164149E1,1.9057453E1,2.5420984E2,2.4360395E1,7.12583E0,1.1600189E0,3.5960587E1,5.3526585E1,5.2863716E1,1.0025877E2,3.016049E1,5.9658113E0,1.9388887E1,1.1600188E0,2.7177586E1,1.4914528E0,1.1600189E0,4.8057923E0,7.407549E1,8.070417E1,1.9886038E0,9.628156E1,3.0823358E2,2.2206076E1,1.3091641E1,2.8171885E0,1.1600189E0,8.617283E0,6.462962E0,1.2892781E2,9.843589E1,2.2984946E2,6.462962E0,1.2925924E1,6.794396E0,4.656647E1,5.2697998E1,4.4080715E1,1.23293434E2,1.0519714E3,2.2686655E2,8.617283E1,2.7144443E2,7.622981E0,5.717236E1,1.3257358E0,1.5080245E1,1.4085943E1,7.755555E1,1.5080245E1,3.9772074E0,2.2603796E2,2.8171886E1,2.253751E1,1.8228867E0,2.4857547E0,4.640075E0,8.285849E0,2.7674736E1,5.2035133E1,1.4914528E0,2.253751E1,3.0326208E1,2.1543207E0,9.8104454E1,1.9554604E1,1.0605886E1,7.291547E0,1.209734E1,2.469183E1,2.4857547E0],"tree_param":{"num_deleted":"0","num_feature":"100","num_nodes":"119","size_leaf_vector":"1"}},{"base_weights":[2.298752E-1,3.7068903E-1,-3.3033076E-1,3.2011908E-1,9.504759E-1,-8.017472E-1,4.625622E-1,5.9990174E-1,2.3887815E-1,9.782623E-1,-3.9235675E-1,-1.0050768E0,4.394722E-1,6.5692693E-1,-3.4468037E-1,6.95218E-1,2.1274143E-1,-4.283207E-1,2.8073207E-1,7.799863E-1,1.0702603E0,-1.7157613E-1,9.027478E-2,-1.4033143E-1,-1.2358114E0,-1.4581808E-1,9.563688E-1,3.247233E-1,9.3325514E-1,-1.1479894E0,4.6657243E-1,8.987845E-1,4.7353253E-1,-1.0299815E0,4.0451363E-1,-6.1321918E-2,-1.5113943E0,2.4640904E-1,9.2247146E-1,9.211341E-1,-2.2953503E0,1.1797696E0,8.900308E-1,2.552239E-1,-1.1663345E0,-1.717834E0,-8.268229E-1,5.06816E-1,-1.9031718E0,-2.312863E-2,1.0031283E0,9.6271414E-1,-2.7887458E-1,1.0664337E0,4.8497838E-1,-1.902084E0,5.179997E-1,-2.2366767E-1,6.825257E-1,1.0873143E-1,6.668426E-2,6.2188905E-2,-3.9421596E-2,8.614396E-2,-2.6070386E-1,-1.3475803E-2,6.2108364E-2,-4.7155965E-2,4.6156317E-2,-2.8737456E-2,-3.0210015E-1,7.6844566E-2,2.0516198E-2,9.743364E-2,-7.9701535E-2,1.7819768E-2,1.1297345E-1,-2.803919E-2,-3.0541548E-1,1.18936434E-1,4.1023344E-2,9.522341E-2,-2.0201353E-2,1.101047E-1,-2.5972083E-2,5.1392503E-2,-2.3762293E-1,1.4230068E-2,-1.9256109E-1,-5.2474614E-2,-2.0836785E-1,7.0357375E-2,-1.1637447E-1,8.721879E-2,-3.0142292E-1,5.5579673E-2,1.1158302E-1,1.0327826E-1,-7.732456E-2,3.1089315E-2,-1.3979654E-1,-8.066884E-3,1.0941038E-1,-2.321112E-1,6.6246696E-2,-2.934916E-1,-8.655708E-2,-7.627245E-2,8.6566485E-2,-5.777216E-2,8.297142E-2],"categories":[],"categories_nodes":[],"categories_segments":[],"categories_sizes":[],"default_left":[0,0,0,0,0,0,0,0,0,0,0,0,0,0,0,0,0,0,0,0,0,0,0,0,0,0,0,0,0,0,0,0,0,0,0,0,0,0,0,0,0,0,0,0,0,0,0,0,0,0,0,0,0,0,0,0,0,0,0,0,0,0,0,0,0,0,0,0,0,0,0,0,0,0,0,0,0,0,0,0,0,0,0,0,0,0,0,0,0,0,0,0,0,0,0,0,0,0,0,0,0,0,0,0,0,0,0,0,0,0,0],"id":1,"left_children":[1,3,5,7,9,11,13,15,17,19,21,23,25,27,29,31,33,35,37,39,41,-1,-1,43,45,47,49,51,53,55,57,59,61,63,65,67,69,71,73,75,77,79,81,83,85,87,89,91,93,-1,95,97,99,101,103,105,107,-1,109,-1,-1,-1,-1,-1,-1,-1,-1,-1,-1,-1,-1,-1,-1,-1,-1,-1,-1,-1,-1,-1,-1,-1,-1,-1,-1,-1,-1,-1,-1,-1,-1,-1,-1,-1,-1,-1,-1,-1,-1,-1,-1,-1,-1,-1,-1,-1,-1,-1,-1,-1,-1],"loss_changes":[2.971517E2,8.7933136E1,2.8327808E2,6.2808136E1,9.373383E0,1.2032797E2,4.460489E1,2.2826569E1,6.0102486E1,3.4760437E0,1.1143592E1,8.132727E1,2.0578453E1,2.0654587E1,3.6732273E1,2.2099289E1,3.0071583E1,5.0462463E1,4.4305695E1,3.6227398E1,2.0830078E0,0E0,0E0,3.5671516E1,6.2120056E1,3.8297813E1,2.2316856E0,4.0781456E1,6.8916473E0,3.640971E1,1.8074228E1,1.0604324E1,3.1276764E1,5.2707237E1,1.2757332E1,2.0818829E1,5.8533615E1,4.119587E1,9.898018E0,1.1554077E1,4.8543186E0,2.1846008E-1,4.5445023E0,2.8043308E1,5.089139E1,5.7095E1,6.583866E1,8.880335E0,3.045921E1,0E0,1.1358528E0,7.0469666E0,3.6625576E1,3.0985718E0,1.6607758E1,1.8469032E1,4.922386E0,0E0,5.490489E0,0E0,0E0,0E0,0E0,0E0,0E0,0E0,0E0,0E0,0E0,0E0,0E0,0E0,0E0,0E0,0E0,0E0,0E0,0E0,0E0,0E0,0E0,0E0,0E0,0E0,0E0,0E0,0E0,0E0,0E0,0E0,0E0,0E0,0E0,0E0,0E0,0E0,0E0,0E0,0E0,0E0,0E0,0E0,0E0,0E0,0E0,0E0,0E0,0E0,0E0,0E0,0E0],"parents":[2147483647,0,0,1,1,2,2,3,3,4,4,5,5,6,6,7,7,8,8,9,9,10,10,11,11,12,12,13,13,14,14,15,15,16,16,17,17,18,18,19,19,20,20,23,23,24,24,25,25,26,26,27,27,28,28,29,29,30,30,31,31,32,32,33,33,34,34,35,35,36,36,37,37,38,38,39,39,40,40,41,41,42,42,43,43,44,44,45,45,46,46,47,47,48,48,50,50,51,51,52,52,53,53,54,54,55,55,56,56,58,58],"right_children":[2,4,6,8,10,12,14,16,18,20,22,24,26,28,30,32,34,36,38,40,42,-1,-1,44,46,48,50,52,54,56,58,60,62,64,66,68,70,72,74,76,78,80,82,84,86,88,90,92,94,-1,96,98,100,102,104,106,108,-1,110,-1,-1,-1,-1,-1,-1,-1,-1,-1,-1,-1,-1,-1,-1,-1,-1,-1,-1,-1,-1,-1,-1,-1,-1,-1,-1,-1,-1,-1,-1,-1,-1,-1,-1,-1,-1,-1,-1,-1,-1,-1,-1,-1,-1,-1,-1,-1,-1,-1,-1,-1,-1],"split_conditions":[2.0752875E-2,-1.332351E-2,4.4196784E-2,5.7229437E-3,1.1939764E-1,-3.2294024E-2,3.4081478E-2,1.5569116E-1,5.2859865E-2,5.8138117E-2,-1.3189482E-2,-3.740003E-2,-2.9875264E-2,1.1552384E-1,-4.6991445E-2,-3.8071954E-1,3.5163763E-1,1.8388236E-1,2.6924009E-2,9.1674365E-2,1.39327105E-2,-1.7157613E-1,9.027478E-2,7.2978675E-2,3.077702E-2,-2.5190769E-2,-3.505016E-2,1.1797666E-1,2.1774009E-1,1.6677383E-1,-1.9869794E-1,4.9459168E-1,-1.0651777E-3,2.3798677E-1,1.2395711E-1,1.6498306E-1,-2.4638624E-1,-1.5554847E-3,2.2679608E-2,-1.35669885E-2,-5.060123E-2,1.4441451E-1,-2.9240926E-3,-6.4561865E-3,-1.5922989E-1,6.615641E-2,2.5235137E-1,-3.0463189E-2,2.168236E-1,-2.312863E-2,-8.4133185E-2,1.971282E-1,3.7143975E-2,4.4413194E-2,3.7611283E-2,3.853192E-2,-4.4577304E-2,-2.2366767E-1,1.9670052E-2,1.0873143E-1,6.668426E-2,6.2188905E-2,-3.9421596E-2,8.614396E-2,-2.6070386E-1,-1.3475803E-2,6.2108364E-2,-4.7155965E-2,4.6156317E-2,-2.8737456E-2,-3.0210015E-1,7.6844566E-2,2.0516198E-2,9.743364E-2,-7.9701535E-2,1.7819768E-2,1.1297345E-1,-2.803919E-2,-3.0541548E-1,1.18936434E-1,4.1023344E-2,9.522341E-2,-2.0201353E-2,1.101047E-1,-2.5972083E-2,5.1392503E-2,-2.3762293E-1,1.4230068E-2,-1.9256109E-1,-5.2474614E-2,-2.0836785E-1,7.0357375E-2,-1.1637447E-1,8.721879E-2,-3.0142292E-1,5.5579673E-2,1.1158302E-1,1.0327826E-1,-7.732456E-2,3.1089315E-2,-1.3979654E-1,-8.066884E-3,1.0941038E-1,-2.321112E-1,6.6246696E-2,-2.934916E-1,-8.655708E-2,-7.627245E-2,8.6566485E-2,-5.777216E-2,8.297142E-2],"split_indices":[24,85,60,24,75,63,24,25,43,40,18,85,63,6,63,23,14,20,62,79,62,0,0,86,61,77,12,75,13,75,53,74,18,2,75,49,97,36,81,12,76,6,85,18,45,89,96,63,1,0,76,13,61,60,61,61,12,0,57,0,0,0,0,0,0,0,0,0,0,0,0,0,0,0,0,0,0,0,0,0,0,0,0,0,0,0,0,0,0,0,0,0,0,0,0,0,0,0,0,0,0,0,0,0,0,0,0,0,0,0,0],"split_type":[0,0,0,0,0,0,0,0,0,0,0,0,0,0,0,0,0,0,0,0,0,0,0,0,0,0,0,0,0,0,0,0,0,0,0,0,0,0,0,0,0,0,0,0,0,0,0,0,0,0,0,0,0,0,0,0,0,0,0,0,0,0,0,0,0,0,0,0,0,0,0,0,0,0,0,0,0,0,0,0,0,0,0,0,0,0,0,0,0,0,0,0,0,0,0,0,0,0,0,0,0,0,0,0,0,0,0,0,0,0,0],"sum_hessian":[3.7643567E3,3.0084807E3,7.55876E2,2.768555E3,2.3992586E2,4.7402942E2,2.8184653E2,6.215696E2,2.1469854E3,2.3532785E2,4.598009E0,4.074702E2,6.655921E1,2.273035E2,5.454303E1,4.9813614E2,1.2343343E2,1.2618703E2,2.0207982E3,7.75876E1,1.5774025E2,2.1135104E0,2.4844985E0,8.616181E1,3.213084E2,3.1551191E1,3.5008022E1,1.0420395E2,1.2309954E2,2.719713E1,2.73459E1,2.58088E2,2.4004811E2,1.5917024E1,1.0751641E2,9.503955E1,3.1147474E1,1.9195181E3,1.0128018E2,7.485259E1,2.73501E0,9.46711E1,6.306915E1,6.2729088E1,2.3432722E1,1.460168E2,1.7529161E2,2.3525902E1,8.025288E0,1.1766148E0,3.3831406E1,5.0369473E1,5.3834476E1,9.384127E1,2.9258268E1,1.8624989E1,8.572144E0,1.3307446E0,2.6015154E1,1.4033304E2,1.1775498E2,2.0524182E2,3.480629E1,7.443516E0,8.473508E0,3.0914728E1,7.6601685E1,5.3311405E1,4.172814E1,1.785812E1,1.3289355E1,1.3926785E2,1.7802501E3,9.873538E1,2.544803E0,1.6816038E1,5.8036556E1,1.1228552E0,1.6121547E0,9.2966415E1,1.7046757E0,5.9791435E1,3.2777152E0,2.3307364E1,3.9421726E1,1.0050363E1,1.338236E1,1.4702946E1,1.3131384E2,1.4246791E2,3.2823692E1,2.1564848E1,1.9610549E0,2.3557498E0,5.669538E0,8.001954E0,2.5829453E1,4.880464E1,1.5648324E0,3.5727867E1,1.8106611E1,2.1651907E0,9.167608E1,1.0220559E0,2.8236212E1,8.411667E0,1.0213321E1,1.5752842E0,6.996859E0,2.4147441E0,2.360041E1],"tree_param":{"num_deleted":"0","num_feature":"100","num_nodes":"111","size_leaf_vector":"1"}},{"base_weights":[2.1140382E-1,3.5345635E-1,-2.579658E-1,3.1326726E-1,1.014506E0,-6.514123E-1,4.24817E-1,5.6067884E-1,2.3948485E-1,1.034424E0,9.5416345E-3,-8.489407E-1,3.8375258E-1,5.813919E-1,-3.1360263E-1,6.500621E-1,1.9540614E-1,1.835668E-1,6.807741E-1,9.584206E-1,1.1940723E-1,-8.636551E-2,8.050438E-2,-8.965345E-2,-1.0324454E0,7.8814274E-1,-3.3444766E-2,8.916017E-1,3.0071437E-1,-9.591657E-2,-2.9009113E-1,8.652289E-1,4.291326E-1,-8.9242584E-1,3.7417716E-1,7.193091E-1,1.3719359E-1,5.014387E-1,1.0768824E0,1.0052341E0,-5.081823E-1,6.491595E-1,-6.0664886E-1,-1.435517E0,-6.9194764E-1,1.1502876E0,2.5670096E-1,1.15133025E-1,-7.5906175E-1,1.0637338E0,4.1391468E-1,1.1042404E0,-1.7667283E-1,-8.281517E-1,6.9591224E-1,1.0562848E-1,6.3450746E-2,-1.9467862E-1,4.7422245E-2,8.252329E-2,-2.1214755E-1,4.9518682E-2,-5.141238E-2,8.019992E-2,3.9946944E-3,-2.1729928E-2,2.0877788E-2,7.926705E-2,-2.6057312E-2,1.1784376E-1,5.9420556E-2,7.3909014E-2,1.0800858E-1,7.383514E-2,-1.4945452E-1,9.9491276E-2,-3.7067574E-3,-1.04949586E-1,1.1182835E-1,2.3762103E-2,-1.615293E-1,-9.583248E-3,-1.105217E-1,1.1849173E-1,4.0435057E-2,1.10298626E-1,-3.4594372E-1,1.7467184E-2,-2.17068E-1,-3.3085715E-2,1.0841856E-1,7.6472454E-2,-1.8459873E-1,4.4829384E-3,1.1403769E-1,4.9311873E-2,-5.8882207E-2,-1.4998113E-1,9.667962E-2,8.256398E-2,-8.623897E-2],"categories":[],"categories_nodes":[],"categories_segments":[],"categories_sizes":[],"default_left":[0,0,0,0,0,0,0,0,0,0,0,0,0,0,0,0,0,0,0,0,0,0,0,0,0,0,0,0,0,0,0,0,0,0,0,0,0,0,0,0,0,0,0,0,0,0,0,0,0,0,0,0,0,0,0,0,0,0,0,0,0,0,0,0,0,0,0,0,0,0,0,0,0,0,0,0,0,0,0,0,0,0,0,0,0,0,0,0,0,0,0,0,0,0,0,0,0,0,0,0,0],"id":2,"left_children":[1,3,5,7,9,11,13,15,17,19,21,23,25,27,29,31,33,35,37,39,-1,-1,-1,41,43,45,47,49,51,53,-1,55,57,59,61,63,65,67,69,71,73,75,77,79,81,83,85,-1,87,89,91,93,95,97,99,-1,-1,-1,-1,-1,-1,-1,-1,-1,-1,-1,-1,-1,-1,-1,-1,-1,-1,-1,-1,-1,-1,-1,-1,-1,-1,-1,-1,-1,-1,-1,-1,-1,-1,-1,-1,-1,-1,-1,-1,-1,-1,-1,-1,-1,-1],"loss_changes":[2.473092E2,7.531256E1,2.3184743E2,4.88808E1,3.2470245E0,1.1222978E2,3.6687534E1,1.9986588E1,5.0955048E1,7.913513E-1,3.5928757E0,6.398532E1,1.4937824E1,2.2444092E1,3.1198345E1,2.3136002E1,2.4165127E1,4.557941E1,1.5971298E1,8.279274E0,0E0,0E0,0E0,3.500276E1,4.982617E1,8.350372E0,3.9098343E1,9.706215E0,5.330516E1,3.1064646E1,0E0,1.0329605E1,2.7274036E1,3.8887566E1,1.1643605E1,8.1828E0,4.3016224E1,3.6128727E1,2.8078232E0,1.3927536E0,6.2234898E0,9.001931E0,4.2288162E1,5.110623E1,4.981874E1,2.0358658E-1,6.511914E1,0E0,3.751906E1,2.9278107E0,2.8623934E1,1.929615E0,2.4504547E1,3.493727E1,5.9290724E0,0E0,0E0,0E0,0E0,0E0,0E0,0E0,0E0,0E0,0E0,0E0,0E0,0E0,0E0,0E0,0E0,0E0,0E0,0E0,0E0,0E0,0E0,0E0,0E0,0E0,0E0,0E0,0E0,0E0,0E0,0E0,0E0,0E0,0E0,0E0,0E0,0E0,0E0,0E0,0E0,0E0,0E0,0E0,0E0,0E0,0E0],"parents":[2147483647,0,0,1,1,2,2,3,3,4,4,5,5,6,6,7,7,8,8,9,9,10,10,11,11,12,12,13,13,14,14,15,15,16,16,17,17,18,18,19,19,23,23,24,24,25,25,26,26,27,27,28,28,29,29,31,31,32,32,33,33,34,34,35,35,36,36,37,37,38,38,39,39,40,40,41,41,42,42,43,43,44,44,45,45,46,46,48,48,49,49,50,50,51,51,52,52,53,53,54,54],"right_children":[2,4,6,8,10,12,14,16,18,20,22,24,26,28,30,32,34,36,38,40,-1,-1,-1,42,44,46,48,50,52,54,-1,56,58,60,62,64,66,68,70,72,74,76,78,80,82,84,86,-1,88,90,92,94,96,98,100,-1,-1,-1,-1,-1,-1,-1,-1,-1,-1,-1,-1,-1,-1,-1,-1,-1,-1,-1,-1,-1,-1,-1,-1,-1,-1,-1,-1,-1,-1,-1,-1,-1,-1,-1,-1,-1,-1,-1,-1,-1,-1,-1,-1,-1,-1],"split_conditions":[1.9581592E-2,-1.104105E-2,4.4196784E-2,5.7229437E-3,9.1656975E-2,-3.2294024E-2,3.4081478E-2,1.5569116E-1,2.3962839E-2,1.8345857E-2,3.9747414E-1,-3.7684713E-2,-2.735043E-1,-3.671317E-1,2.3547053E-1,-3.8071954E-1,3.5163763E-1,-1.5554847E-3,4.2406794E-2,8.245157E-2,1.1940723E-1,-8.636551E-2,8.050438E-2,1.2893212E-1,3.077702E-2,5.12602E-1,1.1941177E-1,2.6239198E-1,1.1199986E-1,4.0899552E-2,-2.9009113E-1,4.9459168E-1,-3.293256E-1,2.3798677E-1,-2.2503229E-2,1.0634424E-2,2.0373723E-2,1.9926624E-1,1.191102E-1,2.509444E-3,-3.5313487E-1,-3.921854E-2,3.4825805E-1,6.615641E-2,1.5917411E-1,9.890862E-2,-2.262651E-1,1.15133025E-1,-2.4157165E-2,1.9733256E-2,-2.6786152E-1,-3.540668E-2,-1.1172462E-2,-2.6979518E-1,1.6608313E-2,1.0562848E-1,6.3450746E-2,-1.9467862E-1,4.7422245E-2,8.252329E-2,-2.1214755E-1,4.9518682E-2,-5.141238E-2,8.019992E-2,3.9946944E-3,-2.1729928E-2,2.0877788E-2,7.926705E-2,-2.6057312E-2,1.1784376E-1,5.9420556E-2,7.3909014E-2,1.0800858E-1,7.383514E-2,-1.4945452E-1,9.9491276E-2,-3.7067574E-3,-1.04949586E-1,1.1182835E-1,2.3762103E-2,-1.615293E-1,-9.583248E-3,-1.105217E-1,1.1849173E-1,4.0435057E-2,1.10298626E-1,-3.4594372E-1,1.7467184E-2,-2.17068E-1,-3.3085715E-2,1.0841856E-1,7.6472454E-2,-1.8459873E-1,4.4829384E-3,1.1403769E-1,4.9311873E-2,-5.8882207E-2,-1.4998113E-1,9.667962E-2,8.256398E-2,-8.623897E-2],"split_indices":[24,85,60,24,89,63,24,25,62,81,1,85,15,27,92,23,14,36,61,89,0,0,0,75,61,35,98,93,75,61,0,74,70,2,85,81,57,98,40,24,0,85,49,89,25,75,42,0,77,24,84,77,18,42,36,0,0,0,0,0,0,0,0,0,0,0,0,0,0,0,0,0,0,0,0,0,0,0,0,0,0,0,0,0,0,0,0,0,0,0,0,0,0,0,0,0,0,0,0,0,0],"split_type":[0,0,0,0,0,0,0,0,0,0,0,0,0,0,0,0,0,0,0,0,0,0,0,0,0,0,0,0,0,0,0,0,0,0,0,0,0,0,0,0,0,0,0,0,0,0,0,0,0,0,0,0,0,0,0,0,0,0,0,0,0,0,0,0,0,0,0,0,0,0,0,0,0,0,0,0,0,0,0,0,0,0,0,0,0,0,0,0,0,0,0,0,0,0,0,0,0,0,0,0,0],"sum_hessian":[3.7067993E3,2.8457832E3,8.6101605E2,2.6840764E3,1.6170683E2,5.4627606E2,3.1473996E2,6.150512E2,2.0690251E3,1.5853542E2,3.1714232E0,4.5889114E2,8.738493E1,2.598532E2,5.4886757E1,4.9350864E2,1.2154259E2,1.8375905E3,2.3143466E2,1.12148506E2,4.6386906E1,1.4710388E0,1.7003844E0,8.960815E1,3.6928302E2,4.3922062E1,4.3462868E1,1.22399E2,1.374542E2,5.158377E1,3.3029852E0,2.485376E2,2.4497104E2,1.6591335E1,1.0495125E2,1.4523238E2,1.6923582E3,1.6086845E2,7.056621E1,1.0898434E2,3.1641698E0,3.6784943E1,5.2823208E1,1.6763065E2,2.0165236E2,2.5429176E1,1.8492887E1,1.6285498E1,2.7177372E1,8.907458E1,3.3324425E1,5.073881E1,8.671538E1,2.6776562E1,2.4807209E1,1.3399814E2,1.14539444E2,3.7769413E0,2.4119409E2,7.0571594E0,9.534176E0,9.275778E1,1.2193471E1,1.2931232E2,1.5920059E1,2.839874E2,1.4083707E3,1.163577E2,4.4510754E1,5.7109013E1,1.3457198E1,2.6309982E1,8.2674355E1,1.5088165E0,1.6553533E0,2.4161448E1,1.2623497E1,4.2343746E1,1.0479462E1,1.623288E1,1.5139777E2,8.306629E1,1.1858606E2,2.3738628E1,1.6905468E0,1.5635391E1,2.8574958E0,1.6884895E1,1.0292477E1,1.0680451E0,8.800654E1,2.9419222E1,3.9052022E0,1.7475154E0,4.8991295E1,3.2958096E1,5.3757282E1,1.960493E1,7.1716313E0,2.3334772E1,1.4724365E0],"tree_param":{"num_deleted":"0","num_feature":"100","num_nodes":"101","size_leaf_vector":"1"}},{"base_weights":[1.9465525E-1,3.2630268E-1,-2.2808889E-1,2.8834957E-1,9.795153E-1,4.1177738E-1,-5.607096E-1,5.699187E-1,2.2613661E-1,1.0000526E0,8.69807E-3,7.31569E-1,1.1104331E-1,-7.455276E-1,4.0813667E-1,8.748768E-1,4.280028E-1,1.8494342E-1,7.185835E-1,9.214517E-1,1.16787665E-1,-7.875158E-2,7.777734E-2,9.053681E-1,-4.529561E-1,7.389874E-1,-5.994681E-1,-1.9645002E-1,-9.313079E-1,-2.2493098E-3,8.6823785E-1,6.4083743E-1,1.0355309E0,4.8279998E-1,-8.4719706E-1,-5.614975E-2,2.7322775E-1,-1.7288251E-1,7.604491E-1,9.695452E-1,-4.623787E-1,3.6404127E-1,1.0272516E0,-1.3418899E0,1.061036E-1,2.4962032E-1,1.0948201E0,-9.688477E-1,1.1702126E-1,7.791532E-1,-4.0763485E-1,-1.0622944E0,-2.4693297E-1,4.4096237E-1,-1.1752806E0,1.10996E0,2.6490602E-1,-2.4472265E-1,9.0149865E-2,-4.4314515E-2,1.0775801E-1,1.0534587E-1,3.5541978E-2,4.6297233E-3,-3.1515917E-1,1.9542094E-2,-4.4729378E-2,4.9929917E-2,9.325656E-3,1.0054878E-1,3.1361565E-2,7.0104614E-2,1.0468087E-1,8.482235E-2,-2.3497608E-1,-4.1720368E-2,1.0494375E-1,6.529643E-2,1.15915515E-1,-2.2823997E-1,5.6470405E-2,-5.097943E-2,1.0638682E-1,-2.646927E-2,1.134022E-1,-1.4300625E-1,3.42226E-2,1.1685772E-1,2.0075826E-2,-8.633437E-3,-1.10846356E-1,-9.4840646E-2,-2.3133408E-1,-1.2024541E-1,-2.3480062E-3,9.672492E-2,1.501739E-2,8.104531E-2,-2.199591E-1,1.1666701E-1,5.870546E-2,-1.1636126E-1,5.9890755E-2],"categories":[],"categories_nodes":[],"categories_segments":[],"categories_sizes":[],"default_left":[0,0,0,0,0,0,0,0,0,0,0,0,0,0,0,0,0,0,0,0,0,0,0,0,0,0,0,0,0,0,0,0,0,0,0,0,0,0,0,0,0,0,0,0,0,0,0,0,0,0,0,0,0,0,0,0,0,0,0,0,0,0,0,0,0,0,0,0,0,0,0,0,0,0,0,0,0,0,0,0,0,0,0,0,0,0,0,0,0,0,0,0,0,0,0,0,0,0,0,0,0,0,0],"id":3,"left_children":[1,3,5,7,9,11,13,15,17,19,21,23,25,27,29,31,33,35,37,39,-1,-1,-1,41,43,45,47,49,51,53,55,57,59,61,63,65,67,-1,69,71,73,75,77,79,-1,81,83,85,-1,87,89,91,93,95,97,99,101,-1,-1,-1,-1,-1,-1,-1,-1,-1,-1,-1,-1,-1,-1,-1,-1,-1,-1,-1,-1,-1,-1,-1,-1,-1,-1,-1,-1,-1,-1,-1,-1,-1,-1,-1,-1,-1,-1,-1,-1,-1,-1,-1,-1,-1,-1],"loss_changes":[2.0326575E2,6.874832E1,1.8487874E2,4.599356E1,3.031479E0,2.8512043E1,1.0259407E2,2.0218353E1,4.364621E1,8.934784E-1,3.164564E0,3.00372E1,6.933082E1,4.879068E1,1.740398E1,4.9819794E0,2.3235882E1,4.243383E1,1.834877E1,7.53141E0,0E0,0E0,0E0,7.928276E0,2.7102736E1,1.4077137E1,4.8846336E1,2.5585686E1,3.1871002E1,2.6362762E1,6.0429497E0,5.35133E1,5.9124527E0,2.2439415E1,2.8605198E1,5.273118E1,5.931112E1,0E0,1.7657234E1,1.4065475E0,1.251001E1,1.3649854E1,4.2866287E0,2.3637703E1,0E0,2.2797234E1,2.8274498E0,3.7334877E1,0E0,4.7583227E0,2.2753899E1,4.0630585E1,1.2545209E1,5.487439E0,3.006471E1,2.257576E-1,7.253887E0,0E0,0E0,0E0,0E0,0E0,0E0,0E0,0E0,0E0,0E0,0E0,0E0,0E0,0E0,0E0,0E0,0E0,0E0,0E0,0E0,0E0,0E0,0E0,0E0,0E0,0E0,0E0,0E0,0E0,0E0,0E0,0E0,0E0,0E0,0E0,0E0,0E0,0E0,0E0,0E0,0E0,0E0,0E0,0E0,0E0,0E0],"parents":[2147483647,0,0,1,1,2,2,3,3,4,4,5,5,6,6,7,7,8,8,9,9,10,10,11,11,12,12,13,13,14,14,15,15,16,16,17,17,18,18,19,19,23,23,24,24,25,25,26,26,27,27,28,28,29,29,30,30,31,31,32,32,33,33,34,34,35,35,36,36,38,38,39,39,40,40,41,41,42,42,43,43,45,45,46,46,47,47,49,49,50,50,51,51,52,52,53,53,54,54,55,55,56,56],"right_children":[2,4,6,8,10,12,14,16,18,20,22,24,26,28,30,32,34,36,38,40,-1,-1,-1,42,44,46,48,50,52,54,56,58,60,62,64,66,68,-1,70,72,74,76,78,80,-1,82,84,86,-1,88,90,92,94,96,98,100,102,-1,-1,-1,-1,-1,-1,-1,-1,-1,-1,-1,-1,-1,-1,-1,-1,-1,-1,-1,-1,-1,-1,-1,-1,-1,-1,-1,-1,-1,-1,-1,-1,-1,-1,-1,-1,-1,-1,-1,-1,-1,-1,-1,-1,-1,-1],"split_conditions":[1.9581592E-2,-1.104105E-2,-3.469916E-2,2.271445E-4,9.1656975E-2,-3.0549487E-1,-3.2294024E-2,-3.0578494E-2,1.4032093E-1,1.8345857E-2,3.9747414E-1,2.5118288E-1,1.8127264E-1,-3.5334416E-2,-2.8594883E-2,-1.8922734E-1,2.0082738E-1,7.2525755E-2,1.0870954E-1,8.245157E-2,1.16787665E-1,-7.875158E-2,7.777734E-2,-3.490124E-1,2.3936613E-1,9.4409816E-2,4.0464077E-2,-9.676017E-3,1.3755256E-2,-2.5190769E-2,-5.2239E-3,4.294969E-1,2.3476802E-2,-1.219596E-2,8.720631E-3,2.6824767E-2,4.5791615E-2,-1.7288251E-1,2.7243707E-1,2.509444E-3,-3.3975172E-1,3.771737E-1,5.454481E-1,-4.8380982E-2,1.061036E-1,-1.05842136E-1,-3.2719964E-1,-1.535583E-1,1.1702126E-1,-3.7265383E-2,2.716351E-1,2.5337002E-1,1.768452E-1,-2.7201941E-2,1.6990062E-2,1.3829195E-1,2.0590033E-2,-2.4472265E-1,9.0149865E-2,-4.4314515E-2,1.0775801E-1,1.0534587E-1,3.5541978E-2,4.6297233E-3,-3.1515917E-1,1.9542094E-2,-4.4729378E-2,4.9929917E-2,9.325656E-3,1.0054878E-1,3.1361565E-2,7.0104614E-2,1.0468087E-1,8.482235E-2,-2.3497608E-1,-4.1720368E-2,1.0494375E-1,6.529643E-2,1.15915515E-1,-2.2823997E-1,5.6470405E-2,-5.097943E-2,1.0638682E-1,-2.646927E-2,1.134022E-1,-1.4300625E-1,3.42226E-2,1.1685772E-1,2.0075826E-2,-8.633437E-3,-1.10846356E-1,-9.4840646E-2,-2.3133408E-1,-1.2024541E-1,-2.3480062E-3,9.672492E-2,1.501739E-2,8.104531E-2,-2.199591E-1,1.1666701E-1,5.870546E-2,-1.1636126E-1,5.9890755E-2],"split_indices":[24,85,12,36,89,99,63,85,75,81,1,4,50,85,63,47,79,40,89,89,0,0,0,78,50,40,61,18,36,77,18,87,61,18,24,60,29,0,92,24,0,20,67,12,0,34,0,38,0,63,59,96,3,85,62,25,24,0,0,0,0,0,0,0,0,0,0,0,0,0,0,0,0,0,0,0,0,0,0,0,0,0,0,0,0,0,0,0,0,0,0,0,0,0,0,0,0,0,0,0,0,0,0],"split_type":[0,0,0,0,0,0,0,0,0,0,0,0,0,0,0,0,0,0,0,0,0,0,0,0,0,0,0,0,0,0,0,0,0,0,0,0,0,0,0,0,0,0,0,0,0,0,0,0,0,0,0,0,0,0,0,0,0,0,0,0,0,0,0,0,0,0,0,0,0,0,0,0,0,0,0,0,0,0,0,0,0,0,0,0,0,0,0,0,0,0,0,0,0,0,0,0,0,0,0,0,0,0,0],"sum_hessian":[3.6500286E3,2.7834563E3,8.6657245E2,2.631974E3,1.5148216E2,2.9631326E2,5.7025916E2,4.748215E2,2.1571526E3,1.4831451E2,3.1676521E0,1.4291216E2,1.5340111E2,4.7909674E2,9.116244E1,1.4915115E2,3.2567038E2,1.9919052E3,1.6524733E2,1.0542771E2,4.28868E1,1.5445852E0,1.6230669E0,1.248319E2,1.8080254E1,8.141082E1,7.199028E1,1.2164116E2,3.5745557E2,4.8710423E1,4.2452015E1,6.2740433E1,8.641071E1,3.1284824E2,1.2822144E1,5.339956E2,1.4579095E3,2.1015048E0,1.6314581E2,1.0217607E2,3.2516398E0,2.3674051E1,1.0115785E2,1.1463302E1,6.616952E0,3.499065E1,4.642017E1,5.9933163E1,1.2057121E1,2.1167046E1,1.0047411E2,2.995674E2,5.7888157E1,3.580583E1,1.2904593E1,2.9709373E1,1.2742643E1,4.230694E0,5.850974E1,2.1255624E0,8.428516E1,5.5762783E1,2.5708545E2,9.945742E0,2.8764024E0,3.2528418E2,2.0871146E2,6.454062E2,8.125034E2,1.045574E2,5.8588413E1,2.5083078E1,7.7092995E1,2.2439902E0,1.0076497E0,1.1246307E1,1.2427743E1,2.7910316E1,7.3247536E1,7.5445285E0,3.918773E0,1.8298407E1,1.6692245E1,1.1398077E0,4.528036E1,4.4269203E1,1.5663959E1,1.2040197E1,9.126849E0,6.966077E1,3.0813345E1,2.7618338E2,2.3384035E1,1.0141255E1,4.7746902E1,1.1915011E1,2.3890816E1,4.462448E0,8.442145E0,2.5691906E1,4.017468E0,1.9440633E0,1.079858E1],"tree_param":{"num_deleted":"0","num_feature":"100","num_nodes":"103","size_leaf_vector":"1"}},{"base_weights":[1.7910561E-1,3.6474976E-1,-8.108516E-2,3.2038674E-1,8.4084326E-1,2.1738926E-1,-4.702803E-1,2.8959608E-1,9.346723E-1,8.6608595E-1,-2.192531E-1,5.5806077E-1,2.4628012E-2,-5.5037075E-1,9.910973E-1,4.913751E-1,2.0237692E-1,7.118078E-1,1.1394951E0,6.369926E-1,9.9528414E-1,-1.3814324E-1,8.409259E-2,-7.978299E-1,6.1779076E-1,-2.4043994E-1,7.1681434E-1,5.1717967E-2,-7.557745E-1,1.082874E0,-1.09629706E-1,5.935902E-1,1.0972519E-1,-3.5768813E-1,2.528596E-1,9.674401E-1,-4.448983E-1,1.1600723E-1,3.1994022E-2,7.901695E-1,-2.9698533E-1,1.1037811E0,7.0498055E-1,1.300192E-1,-2.8325253E0,2.3944107E-1,8.0844146E-1,-3.351461E-1,1.105663E0,9.819036E-1,2.4588369E-1,1.1842298E-1,-2.525819E0,2.6333833E-1,-8.6156803E-1,3.889846E-1,1.1356121E-1,-3.5451774E-2,2.3553604E-2,3.8312044E-2,8.085447E-2,4.1759327E-2,-3.6007486E-2,-2.3310368E-1,-4.20002E-3,7.569366E-2,1.9285021E-2,1.0581341E-1,3.7050345E-3,-1.9834553E-1,9.890502E-2,-7.054303E-3,1.0477791E-1,2.8515348E-2,1.1152728E-1,-8.101771E-2,7.831433E-2,-3.3993747E-2,9.2538185E-2,-3.5227177E-1,-3.5726305E-2,6.320053E-2,-1.1143488E-1,3.3431116E-2,8.7544575E-2,9.02371E-3,-5.3859573E-2,1.13975465E-1,3.1823386E-2,-1.09478116E-1,1.0296773E-1,-2.0973969E-1,3.8911894E-2,4.2050738E-2,-4.6071704E-2,-7.3720366E-2,-2.9858416E-1,6.352921E-2,-4.714399E-2,3.0196393E-2,-9.397218E-2,-2.4219565E-2,7.662256E-2],"categories":[],"categories_nodes":[],"categories_segments":[],"categories_sizes":[],"default_left":[0,0,0,0,0,0,0,0,0,0,0,0,0,0,0,0,0,0,0,0,0,0,0,0,0,0,0,0,0,0,0,0,0,0,0,0,0,0,0,0,0,0,0,0,0,0,0,0,0,0,0,0,0,0,0,0,0,0,0,0,0,0,0,0,0,0,0,0,0,0,0,0,0,0,0,0,0,0,0,0,0,0,0,0,0,0,0,0,0,0,0,0,0,0,0,0,0,0,0,0,0,0,0],"id":4,"left_children":[1,3,5,7,9,11,13,15,17,19,21,23,25,27,29,31,33,35,37,39,41,-1,-1,43,45,47,49,51,53,55,57,59,61,63,65,67,69,-1,-1,71,-1,73,75,77,79,81,83,85,87,89,91,93,95,97,99,101,-1,-1,-1,-1,-1,-1,-1,-1,-1,-1,-1,-1,-1,-1,-1,-1,-1,-1,-1,-1,-1,-1,-1,-1,-1,-1,-1,-1,-1,-1,-1,-1,-1,-1,-1,-1,-1,-1,-1,-1,-1,-1,-1,-1,-1,-1,-1],"loss_changes":[1.7377206E2,4.4071198E1,1.7418336E2,3.608319E1,4.9620056E0,5.57267E1,7.6711075E1,3.213736E1,3.3562317E0,4.5275574E0,7.2552485E0,2.5330292E1,9.982493E1,7.641647E1,3.5704346E0,2.147313E1,3.6298306E1,1.4146177E1,4.0304184E-1,3.8623222E1,2.6778793E0,0E0,0E0,2.5621502E1,2.103553E1,5.0534046E1,1.8565239E1,2.7470316E1,4.98815E1,7.157707E-1,3.825334E-1,1.9381851E1,1.7197176E1,6.612404E1,3.540679E1,3.192974E0,2.1995726E1,0E0,0E0,1.4214729E1,0E0,4.1674805E-1,4.497574E0,4.1059313E0,5.973652E0,5.386616E1,5.9109497E0,3.1930626E1,3.37862E-1,1.0657005E1,1.9475153E1,2.7310987E1,1.1158638E0,1.2346491E1,3.8246307E1,1.0797231E0,0E0,0E0,0E0,0E0,0E0,0E0,0E0,0E0,0E0,0E0,0E0,0E0,0E0,0E0,0E0,0E0,0E0,0E0,0E0,0E0,0E0,0E0,0E0,0E0,0E0,0E0,0E0,0E0,0E0,0E0,0E0,0E0,0E0,0E0,0E0,0E0,0E0,0E0,0E0,0E0,0E0,0E0,0E0,0E0,0E0,0E0,0E0],"parents":[2147483647,0,0,1,1,2,2,3,3,4,4,5,5,6,6,7,7,8,8,9,9,10,10,11,11,12,12,13,13,14,14,15,15,16,16,17,17,18,18,19,19,20,20,23,23,24,24,25,25,26,26,27,27,28,28,29,29,30,30,31,31,32,32,33,33,34,34,35,35,36,36,39,39,41,41,42,42,43,43,44,44,45,45,46,46,47,47,48,48,49,49,50,50,51,51,52,52,53,53,54,54,55,55],"right_children":[2,4,6,8,10,12,14,16,18,20,22,24,26,28,30,32,34,36,38,40,42,-1,-1,44,46,48,50,52,54,56,58,60,62,64,66,68,70,-1,-1,72,-1,74,76,78,80,82,84,86,88,90,92,94,96,98,100,102,-1,-1,-1,-1,-1,-1,-1,-1,-1,-1,-1,-1,-1,-1,-1,-1,-1,-1,-1,-1,-1,-1,-1,-1,-1,-1,-1,-1,-1,-1,-1,-1,-1,-1,-1,-1,-1,-1,-1,-1,-1,-1,-1,-1,-1,-1,-1],"split_conditions":[1.427664E-2,-1.332351E-2,-3.0982906E-2,2.5289675E-2,1.8599065E-2,1.1199986E-1,-1.5207407E-2,5.7229437E-3,3.9663527E-2,5.243146E-2,9.254663E-4,-3.7978586E-2,4.1308843E-2,5.4358533E-3,-2.0463795E-3,1.5459283E-1,3.0075222E-1,1.0035038E-1,1.4690726E-2,4.9521044E-2,1.39327105E-2,-1.3814324E-1,8.409259E-2,2.7326876E-2,9.916472E-2,1.1605017E-1,1.0728909E-1,-2.0776434E-1,-3.7978586E-2,1.742535E-2,-6.3257195E-2,3.780829E-1,-7.013218E-1,-2.2925052E-1,2.6824767E-2,-3.3029728E-2,3.5152417E-1,1.1600723E-1,3.1994022E-2,-1.35669885E-2,-2.9698533E-1,-2.1233533E-2,-2.9095562E-2,-5.9225126E-3,3.752638E-1,4.4636053E-1,1.5048833E-2,-1.1128737E-2,2.2119187E-1,8.907037E-2,1.0933557E-1,1.1956732E-1,3.659528E-2,-3.5343575E-3,-9.6197175E-3,-1.9732131E-1,1.1356121E-1,-3.5451774E-2,2.3553604E-2,3.8312044E-2,8.085447E-2,4.1759327E-2,-3.6007486E-2,-2.3310368E-1,-4.20002E-3,7.569366E-2,1.9285021E-2,1.0581341E-1,3.7050345E-3,-1.9834553E-1,9.890502E-2,-7.054303E-3,1.0477791E-1,2.8515348E-2,1.1152728E-1,-8.101771E-2,7.831433E-2,-3.3993747E-2,9.2538185E-2,-3.5227177E-1,-3.5726305E-2,6.320053E-2,-1.1143488E-1,3.3431116E-2,8.7544575E-2,9.02371E-3,-5.3859573E-2,1.13975465E-1,3.1823386E-2,-1.09478116E-1,1.0296773E-1,-2.0973969E-1,3.8911894E-2,4.2050738E-2,-4.6071704E-2,-7.3720366E-2,-2.9858416E-1,6.352921E-2,-4.714399E-2,3.0196393E-2,-9.397218E-2,-2.4219565E-2,7.662256E-2],"split_indices":[24,85,12,62,62,75,85,24,61,86,36,85,61,81,18,25,95,43,81,43,62,0,0,57,6,89,86,97,85,61,34,87,17,33,60,12,71,0,0,12,0,18,63,18,1,95,24,18,16,40,86,31,43,18,18,0,0,0,0,0,0,0,0,0,0,0,0,0,0,0,0,0,0,0,0,0,0,0,0,0,0,0,0,0,0,0,0,0,0,0,0,0,0,0,0,0,0,0,0,0,0,0,0],"split_type":[0,0,0,0,0,0,0,0,0,0,0,0,0,0,0,0,0,0,0,0,0,0,0,0,0,0,0,0,0,0,0,0,0,0,0,0,0,0,0,0,0,0,0,0,0,0,0,0,0,0,0,0,0,0,0,0,0,0,0,0,0,0,0,0,0,0,0,0,0,0,0,0,0,0,0,0,0,0,0,0,0,0,0,0,0,0,0,0,0,0,0,0,0,0,0,0,0,0,0,0,0,0,0],"sum_hessian":[3.5959368E3,2.0983662E3,1.4975704E3,1.9210345E3,1.7733163E2,8.478185E2,6.49752E2,1.8307413E3,9.02933E1,1.7338603E2,3.9456027E0,3.0568283E2,5.421356E2,6.165837E2,3.316835E1,5.511161E2,1.2796251E3,4.5385406E1,4.490789E1,6.4660614E1,1.0872541E2,1.7376997E0,2.207903E0,1.2376424E1,2.9330643E2,3.924878E2,1.4964783E2,1.5703215E2,4.595515E2,3.0630642E1,2.537708E0,4.342564E2,1.1685972E2,1.0530167E2,1.1743235E3,3.7304688E1,8.08072E0,4.340266E1,1.5052295E0,6.2775566E1,1.8850518E0,7.710595E1,3.1619463E1,9.143129E0,3.233294E0,9.903186E1,1.9427455E2,3.6739075E2,2.5097048E1,9.505555E1,5.4592285E1,1.5400076E2,3.0313857E0,4.3079166E1,4.1647235E2,2.755229E0,2.7875412E1,1.4686424E0,1.0690658E0,2.2082294E2,2.1343346E2,7.06637E1,4.619602E1,1.3642035E1,9.165963E1,1.2369295E2,1.0506306E3,3.386613E1,3.438558E0,3.7133086E0,4.367411E0,1.4627853E1,4.8147713E1,1.424751E0,7.56812E1,1.0917135E0,3.052775E1,6.107177E0,3.0359526E0,2.1974082E0,1.0358859E0,7.718372E1,2.1848139E1,2.479705E1,1.6947751E2,1.19043915E2,2.4834683E2,2.3626696E1,1.4703531E0,1.6447201E0,9.341083E1,2.3588746E0,5.223341E1,1.013892E2,5.261156E1,1.1525786E0,1.8788071E0,2.8690886E1,1.438828E1,2.6033197E1,3.9043915E2,1.1646231E0,1.5906057E0],"tree_param":{"num_deleted":"0","num_feature":"100","num_nodes":"103","size_leaf_vector":"1"}},{"base_weights":[1.6462716E-1,3.3727363E-1,-7.182357E-2,7.852185E-1,2.9136106E-1,2.0005648E-1,-4.142085E-1,5.91988E-1,9.593562E-1,8.5476136E-1,2.6158592E-1,6.599408E-1,7.172053E-2,-4.8332146E-1,9.546154E-1,7.543967E-1,-1.4211441E0,8.089936E-1,1.0772895E0,-5.638332E-2,8.9127535E-1,-2.9942533E-1,3.136021E-1,7.409109E-1,-3.0661336E-1,-6.319181E-2,6.243782E-1,1.10068195E-1,-6.3927823E-1,1.0487742E0,-1.0158992E-1,7.93893E-1,-9.936308E-2,6.916833E-3,-2.6443572E0,9.711326E-1,-2.8724852E-1,1.1395711E-1,7.7401453E-1,5.8370143E-1,9.763643E-1,-1.0283841E0,8.045782E-2,2.4878196E-1,6.176073E-1,1.0308249E0,4.9904257E-1,-1.3389293E0,5.2823615E-1,4.541828E-1,-3.378705E-1,8.7328714E-1,1.9063132E-1,-1.9043198E0,2.0409107E-1,2.2744276E-1,-7.2266775E-1,3.704511E-1,1.1029252E-1,-3.4959715E-2,2.4304584E-2,8.4118135E-2,-4.673597E-2,-1.16394036E-1,8.250789E-2,-3.2902676E-1,-3.8515583E-2,1.1108897E-1,6.7366846E-2,-8.9774825E-2,1.0858538E-1,-1.07631855E-1,8.169242E-2,2.871911E-2,9.97357E-2,-5.5188513E-3,-2.3580387E-1,8.889887E-2,-2.093456E-2,2.0764997E-2,8.8432364E-2,-1.0057147E-1,7.0876226E-2,-1.5094207E-1,1.1073517E-1,5.683383E-2,-1.6865872E-1,8.010673E-2,-2.4024907E-1,-1.4602567E-2,9.665098E-2,-3.6384852E-3,7.268929E-2,-4.380139E-2,4.3684702E-2,9.588611E-2,-7.7462815E-2,-2.8010055E-1,3.483065E-2,-2.8393638E-1,-1.1599064E-2,5.071338E-2,-4.8361193E-2,-5.681348E-2,5.007722E-2,-7.777809E-2,5.8331873E-2,-2.273604E-2,7.4120246E-2],"categories":[],"categories_nodes":[],"categories_segments":[],"categories_sizes":[],"default_left":[0,0,0,0,0,0,0,0,0,0,0,0,0,0,0,0,0,0,0,0,0,0,0,0,0,0,0,0,0,0,0,0,0,0,0,0,0,0,0,0,0,0,0,0,0,0,0,0,0,0,0,0,0,0,0,0,0,0,0,0,0,0,0,0,0,0,0,0,0,0,0,0,0,0,0,0,0,0,0,0,0,0,0,0,0,0,0,0,0,0,0,0,0,0,0,0,0,0,0,0,0,0,0,0,0,0,0,0,0],"id":5,"left_children":[1,3,5,7,9,11,13,15,17,19,21,23,25,27,29,31,33,35,37,-1,39,41,43,45,47,49,51,53,55,57,59,61,-1,63,65,67,-1,-1,69,71,73,75,77,79,81,83,85,87,89,91,93,95,97,99,101,103,105,107,-1,-1,-1,-1,-1,-1,-1,-1,-1,-1,-1,-1,-1,-1,-1,-1,-1,-1,-1,-1,-1,-1,-1,-1,-1,-1,-1,-1,-1,-1,-1,-1,-1,-1,-1,-1,-1,-1,-1,-1,-1,-1,-1,-1,-1,-1,-1,-1,-1,-1,-1],"loss_changes":[1.4478645E2,4.192772E1,1.394689E2,5.8244095E0,3.0992157E1,4.9251186E1,6.3190544E1,3.1367706E1,8.718262E-1,5.3179626E0,5.1711777E1,1.4480148E1,4.8814636E1,5.8545456E1,3.3094788E0,6.7537384E0,1.2707416E1,3.0981415E1,1.0169983E-1,0E0,1.8121719E0,4.178692E1,3.175467E1,1.1289345E1,1.3448938E1,7.500655E1,1.3701515E1,2.5457432E1,3.6338806E1,6.808243E-1,3.8820636E-1,5.465378E0,0E0,5.126302E0,4.4460945E0,1.1633301E0,0E0,0E0,7.2258954E0,9.478039E0,7.2354126E-1,6.67283E1,2.3601917E1,3.4749832E1,4.2723167E1,1.6372581E1,1.5151373E1,1.7613955E1,2.768556E0,2.4520645E1,2.692875E1,1.2212654E1,2.3671669E1,9.702459E0,2.6787647E1,1.0002415E1,3.3334183E1,9.882217E-1,0E0,0E0,0E0,0E0,0E0,0E0,0E0,0E0,0E0,0E0,0E0,0E0,0E0,0E0,0E0,0E0,0E0,0E0,0E0,0E0,0E0,0E0,0E0,0E0,0E0,0E0,0E0,0E0,0E0,0E0,0E0,0E0,0E0,0E0,0E0,0E0,0E0,0E0,0E0,0E0,0E0,0E0,0E0,0E0,0E0,0E0,0E0,0E0,0E0,0E0,0E0],"parents":[2147483647,0,0,1,1,2,2,3,3,4,4,5,5,6,6,7,7,8,8,9,9,10,10,11,11,12,12,13,13,14,14,15,15,16,16,17,17,18,18,20,20,21,21,22,22,23,23,24,24,25,25,26,26,27,27,28,28,29,29,30,30,31,31,33,33,34,34,35,35,38,38,39,39,40,40,41,41,42,42,43,43,44,44,45,45,46,46,47,47,48,48,49,49,50,50,51,51,52,52,53,53,54,54,55,55,56,56,57,57],"right_children":[2,4,6,8,10,12,14,16,18,20,22,24,26,28,30,32,34,36,38,-1,40,42,44,46,48,50,52,54,56,58,60,62,-1,64,66,68,-1,-1,70,72,74,76,78,80,82,84,86,88,90,92,94,96,98,100,102,104,106,108,-1,-1,-1,-1,-1,-1,-1,-1,-1,-1,-1,-1,-1,-1,-1,-1,-1,-1,-1,-1,-1,-1,-1,-1,-1,-1,-1,-1,-1,-1,-1,-1,-1,-1,-1,-1,-1,-1,-1,-1,-1,-1,-1,-1,-1,-1,-1,-1,-1,-1,-1],"split_conditions":[1.427664E-2,-1.7393101E-3,-3.0982906E-2,-1.9560223E-2,1.8644355E-2,2.453128E-3,-1.5207407E-2,9.79568E-3,1.5886259E-1,-8.132577E-3,5.2859865E-2,2.1409398E-1,4.1308843E-2,4.893215E-3,-2.0463795E-3,-1.993622E-2,4.539871E-2,1.5140787E-1,1.6807513E-2,-5.638332E-2,4.044239E-2,-1.6297562E-1,-2.2132574E-2,-9.658151E-2,2.3629816E-1,1.1199986E-1,1.0728909E-1,1.485233E-1,-3.7978586E-2,1.742535E-2,2.0130692E-2,1.3698067E-2,-9.936308E-2,1.5929498E-1,1.6087113E-2,-3.4249453E-3,-2.8724852E-1,1.1395711E-1,1.7157305E-2,-1.115072E-2,-7.423707E-3,-2.4397057E-1,3.986855E-4,2.5289675E-2,-1.7176038E-1,1.6043473E-2,1.838524E-1,2.9634494E-1,2.4377348E-1,3.3043705E-2,3.629614E-1,-9.5867716E-2,2.380653E-1,4.623472E-2,2.726435E-1,5.8138117E-2,-2.124252E-2,-1.9732131E-1,1.1029252E-1,-3.4959715E-2,2.4304584E-2,8.4118135E-2,-4.673597E-2,-1.16394036E-1,8.250789E-2,-3.2902676E-1,-3.8515583E-2,1.1108897E-1,6.7366846E-2,-8.9774825E-2,1.0858538E-1,-1.07631855E-1,8.169242E-2,2.871911E-2,9.97357E-2,-5.5188513E-3,-2.3580387E-1,8.889887E-2,-2.093456E-2,2.0764997E-2,8.8432364E-2,-1.0057147E-1,7.0876226E-2,-1.5094207E-1,1.1073517E-1,5.683383E-2,-1.6865872E-1,8.010673E-2,-2.4024907E-1,-1.4602567E-2,9.665098E-2,-3.6384852E-3,7.268929E-2,-4.380139E-2,4.3684702E-2,9.588611E-2,-7.7462815E-2,-2.8010055E-1,3.483065E-2,-2.8393638E-1,-1.1599064E-2,5.071338E-2,-4.8361193E-2,-5.681348E-2,5.007722E-2,-7.777809E-2,5.8331873E-2,-2.273604E-2,7.4120246E-2],"split_indices":[24,36,12,85,29,36,85,81,4,18,43,13,61,81,18,85,60,4,62,0,31,10,85,76,48,75,86,59,85,61,62,24,0,3,81,18,0,0,62,12,18,97,81,62,53,62,79,59,48,61,22,76,16,40,14,40,77,0,0,0,0,0,0,0,0,0,0,0,0,0,0,0,0,0,0,0,0,0,0,0,0,0,0,0,0,0,0,0,0,0,0,0,0,0,0,0,0,0,0,0,0,0,0,0,0,0,0,0,0],"split_type":[0,0,0,0,0,0,0,0,0,0,0,0,0,0,0,0,0,0,0,0,0,0,0,0,0,0,0,0,0,0,0,0,0,0,0,0,0,0,0,0,0,0,0,0,0,0,0,0,0,0,0,0,0,0,0,0,0,0,0,0,0,0,0,0,0,0,0,0,0,0,0,0,0,0,0,0,0,0,0,0,0,0,0,0,0,0,0,0,0,0,0,0,0,0,0,0,0,0,0,0,0,0,0,0,0,0,0,0,0],"sum_hessian":[3.545149E3,2.0487852E3,1.4963638E3,1.8897282E2,1.8598123E3,8.342893E2,6.620744E2,9.166124E1,9.731159E1,9.196473E1,1.7678475E3,1.8111873E2,6.531706E2,6.308683E2,3.1206114E1,8.539712E1,6.2641172E0,4.6229553E1,5.108204E1,1.9453356E0,9.0019394E1,1.4960054E2,1.6182471E3,1.6733427E2,1.3784459E1,5.2571985E2,1.2745074E2,1.3135992E2,4.9950836E2,2.8658312E1,2.5478017E0,8.4044E1,1.3531189E0,3.3488226E0,2.9152946E0,4.4984562E1,1.2449902E0,4.0091217E1,1.0990825E1,2.1210176E1,6.880922E1,5.0667477E1,9.893306E1,1.335343E3,2.82904E2,7.462434E1,9.270993E1,5.8933554E0,7.891104E0,1.8208943E2,3.436304E2,8.0335976E1,4.711476E1,4.999283E0,1.2636064E2,4.3689327E1,4.5581903E2,2.6983573E0,2.5959955E1,1.4732348E0,1.074567E0,8.132782E1,2.7161794E0,1.2036593E0,2.1451633E0,1.9122059E0,1.0030886E0,2.8744875E1,1.6239687E1,1.4324758E0,9.558349E0,2.167498E0,1.9042677E1,2.4679737E0,6.634125E1,2.9856518E1,2.0810959E1,2.5558662E1,7.33744E1,1.2554196E3,7.992348E1,1.4507943E1,2.6839606E2,1.6347877E0,7.2989555E1,9.057811E1,2.131827E0,2.0384958E0,3.8548598E0,3.371318E0,4.519786E0,6.5368E1,1.16721436E2,3.0468066E2,3.894974E1,7.676767E1,3.5683024E0,1.5195372E0,4.5595226E1,2.8968956E0,2.102387E0,8.789255E1,3.8468098E1,1.0895966E1,3.279336E1,4.3775024E2,1.8068785E1,1.1809356E0,1.5174216E0],"tree_param":{"num_deleted":"0","num_feature":"100","num_nodes":"109","size_leaf_vector":"1"}},{"base_weights":[1.5113635E-1,3.1132966E-1,-6.3817315E-2,2.7650973E-1,8.699332E-1,1.8197863E-1,-3.6907843E-1,2.4993947E-1,8.668137E-1,9.58176E-1,4.384872E-1,4.6456137E-1,-4.1297884E-3,-4.298778E-1,9.2029506E-1,4.935352E-1,1.8668328E-1,6.2927043E-1,1.0923574E0,8.1732476E-1,1.116992E-1,-3.4819606E-1,8.3107764E-1,2.610496E-1,9.458267E-1,-2.5889593E-1,5.6581205E-1,4.194229E-2,-5.812995E-1,1.0170313E0,-9.403482E-2,5.549123E-1,-4.920348E-1,-3.452673E-1,2.4256076E-1,9.032781E-1,-4.979508E-1,1.1152208E-1,2.6303122E-2,8.6546874E-1,-8.3551966E-2,-1.5776516E0,9.080563E-2,9.974728E-1,-4.008581E-2,5.0490826E-1,-3.4581575E-1,-5.6385893E-2,9.7258854E-1,6.093098E-1,-3.876328E-1,2.8698713E-1,9.402512E-1,-8.567363E-1,1.8231373E-1,-6.7904574E-1,1.0946116E-1,3.5327926E-1,1.0727703E-1,-3.3598904E-2,2.4077551E-2,4.5718532E-2,1.0077906E-1,1.0591031E-2,-2.3584497E-1,-1.6603063E-1,-1.8791527E-2,7.616428E-2,1.9067463E-2,1.08631365E-1,2.83884E-2,-1.7995973E-1,9.357347E-2,2.0160386E-2,9.354641E-2,7.1139775E-2,-3.2162365E-1,1.0616541E-1,2.3148848E-2,5.718581E-2,-2.5429362E-1,-1.7850696E-1,2.5067965E-2,1.0985985E-1,6.4455755E-2,-1.3507512E-1,7.953254E-2,7.1454346E-3,-5.9701897E-2,3.6579415E-2,-2.308853E-1,-4.8147872E-2,1.0802485E-1,1.10603094E-1,-1.4605711E-1,-1.7194664E-2,7.7251896E-2,-5.7606805E-2,-1.3685803E-1,8.3264634E-2,-4.7228806E-2,-2.1347119E-2,7.175231E-2],"categories":[],"categories_nodes":[],"categories_segments":[],"categories_sizes":[],"default_left":[0,0,0,0,0,0,0,0,0,0,0,0,0,0,0,0,0,0,0,0,0,0,0,0,0,0,0,0,0,0,0,0,0,0,0,0,0,0,0,0,0,0,0,0,0,0,0,0,0,0,0,0,0,0,0,0,0,0,0,0,0,0,0,0,0,0,0,0,0,0,0,0,0,0,0,0,0,0,0,0,0,0,0,0,0,0,0,0,0,0,0,0,0,0,0,0,0,0,0,0,0,0,0],"id":6,"left_children":[1,3,5,7,9,11,13,15,17,19,21,23,25,27,29,31,33,35,37,39,-1,41,43,45,47,49,51,53,55,57,59,61,63,65,67,69,71,-1,-1,73,-1,75,-1,77,-1,79,81,-1,83,85,87,89,91,93,95,97,99,101,-1,-1,-1,-1,-1,-1,-1,-1,-1,-1,-1,-1,-1,-1,-1,-1,-1,-1,-1,-1,-1,-1,-1,-1,-1,-1,-1,-1,-1,-1,-1,-1,-1,-1,-1,-1,-1,-1,-1,-1,-1,-1,-1,-1,-1],"loss_changes":[1.2043668E2,3.8736603E1,1.1217302E2,2.9392471E1,4.038704E0,4.3565132E1,5.2665703E1,2.776548E1,3.6473007E0,1.2431641E0,7.000571E0,3.1969223E1,7.280733E1,4.5564484E1,3.073019E0,2.27807E1,4.279148E1,1.33492985E1,4.678154E-1,5.084564E0,0E0,1.3694197E1,3.431859E0,3.458996E1,4.4824905E0,3.8965958E1,1.5902161E1,1.9810236E1,3.2660797E1,6.4901733E-1,3.690671E-1,1.5062294E1,2.5185051E1,2.8034935E1,3.4889847E1,3.5408401E0,1.8127525E1,0E0,0E0,2.3090172E0,0E0,1.8707258E1,0E0,4.0896416E-1,0E0,3.538785E1,5.8185944E1,0E0,3.2619247E0,1.753045E1,2.9109215E1,1.9301947E1,1.3591904E1,2.6769222E1,2.8480122E1,2.924289E1,2.5925934E1,9.0534204E-1,0E0,0E0,0E0,0E0,0E0,0E0,0E0,0E0,0E0,0E0,0E0,0E0,0E0,0E0,0E0,0E0,0E0,0E0,0E0,0E0,0E0,0E0,0E0,0E0,0E0,0E0,0E0,0E0,0E0,0E0,0E0,0E0,0E0,0E0,0E0,0E0,0E0,0E0,0E0,0E0,0E0,0E0,0E0,0E0,0E0],"parents":[2147483647,0,0,1,1,2,2,3,3,4,4,5,5,6,6,7,7,8,8,9,9,10,10,11,11,12,12,13,13,14,14,15,15,16,16,17,17,18,18,19,19,21,21,22,22,23,23,24,24,25,25,26,26,27,27,28,28,29,29,30,30,31,31,32,32,33,33,34,34,35,35,36,36,39,39,41,41,43,43,45,45,46,46,48,48,49,49,50,50,51,51,52,52,53,53,54,54,55,55,56,56,57,57],"right_children":[2,4,6,8,10,12,14,16,18,20,22,24,26,28,30,32,34,36,38,40,-1,42,44,46,48,50,52,54,56,58,60,62,64,66,68,70,72,-1,-1,74,-1,76,-1,78,-1,80,82,-1,84,86,88,90,92,94,96,98,100,102,-1,-1,-1,-1,-1,-1,-1,-1,-1,-1,-1,-1,-1,-1,-1,-1,-1,-1,-1,-1,-1,-1,-1,-1,-1,-1,-1,-1,-1,-1,-1,-1,-1,-1,-1,-1,-1,-1,-1,-1,-1,-1,-1,-1,-1],"split_conditions":[1.427664E-2,-1.104105E-2,-3.085926E-2,2.5289675E-2,4.275043E-2,1.7819405E-1,-1.5207407E-2,3.013688E-4,3.9663527E-2,9.602115E-3,5.8260687E-2,5.518005E-1,4.1308843E-2,5.4358533E-3,-2.0463795E-3,2.0082738E-1,1.8824903E-2,1.0035038E-1,1.4690726E-2,3.3785984E-2,1.116992E-1,1.8345857E-2,1.8599065E-2,1.4796995E-1,2.9047782E-2,4.6476237E-3,-1.0580099E-2,-9.416164E-2,9.828586E-2,1.742535E-2,-6.3257195E-2,1.8222831E-1,9.483781E-3,1.0495358E-3,2.6368324E-2,6.0410188E-3,3.5152417E-1,1.1152208E-1,2.6303122E-2,-1.0247962E-3,-8.3551966E-2,1.3689214E-2,9.080563E-2,1.3501584E-4,-4.008581E-2,3.7177733E-1,4.9222168E-1,-5.6385893E-2,-1.0075984E-1,-4.362949E-2,-1.1128737E-2,1.47165125E-2,2.058502E-2,1.3635589E-2,1.8033981E-2,9.3268536E-2,2.8713254E-2,-1.9732131E-1,1.0727703E-1,-3.3598904E-2,2.4077551E-2,4.5718532E-2,1.0077906E-1,1.0591031E-2,-2.3584497E-1,-1.6603063E-1,-1.8791527E-2,7.616428E-2,1.9067463E-2,1.08631365E-1,2.83884E-2,-1.7995973E-1,9.357347E-2,2.0160386E-2,9.354641E-2,7.1139775E-2,-3.2162365E-1,1.0616541E-1,2.3148848E-2,5.718581E-2,-2.5429362E-1,-1.7850696E-1,2.5067965E-2,1.0985985E-1,6.4455755E-2,-1.3507512E-1,7.953254E-2,7.1454346E-3,-5.9701897E-2,3.6579415E-2,-2.308853E-1,-4.8147872E-2,1.0802485E-1,1.10603094E-1,-1.4605711E-1,-1.7194664E-2,7.7251896E-2,-5.7606805E-2,-1.3685803E-1,8.3264634E-2,-4.7228806E-2,-2.1347119E-2,7.175231E-2],"split_indices":[24,85,12,62,29,98,85,36,61,81,60,69,61,81,18,79,57,43,81,57,0,81,62,25,61,81,18,76,6,61,34,13,24,36,61,36,71,0,0,24,0,62,0,36,0,44,72,0,76,63,18,36,62,57,24,6,24,0,0,0,0,0,0,0,0,0,0,0,0,0,0,0,0,0,0,0,0,0,0,0,0,0,0,0,0,0,0,0,0,0,0,0,0,0,0,0,0,0,0,0,0,0,0],"split_type":[0,0,0,0,0,0,0,0,0,0,0,0,0,0,0,0,0,0,0,0,0,0,0,0,0,0,0,0,0,0,0,0,0,0,0,0,0,0,0,0,0,0,0,0,0,0,0,0,0,0,0,0,0,0,0,0,0,0,0,0,0,0,0,0,0,0,0,0,0,0,0,0,0,0,0,0,0,0,0,0,0,0,0,0,0,0,0,0,0,0,0,0,0,0,0,0,0,0,0,0,0,0,0],"sum_hessian":[3.4960183E3,2.0029099E3,1.4931084E3,1.8867936E3,1.1611625E2,8.2733936E2,6.65769E2,1.806887E3,7.990662E1,9.538623E1,2.0730017E1,3.2792676E2,4.994126E2,6.364255E2,2.9343534E1,3.7107965E2,1.4358074E3,4.0763935E1,3.914268E1,5.3809692E1,4.1576538E1,6.938848E0,1.3791168E1,2.3155286E2,9.637389E1,3.4551282E2,1.5389978E2,1.5480043E2,4.8162503E2,2.6786276E1,2.557259E0,3.4973648E2,2.1343155E1,1.3599197E2,1.2998154E3,3.2952446E1,7.8114924E0,3.775704E1,1.3856434E0,5.2749584E1,1.0601104E0,3.3775265E0,3.5613213E0,1.2317754E1,1.4734142E0,1.6529846E2,6.62544E1,1.3290665E0,9.504482E1,4.41346E1,3.013782E2,8.922506E1,6.467471E1,2.0223469E1,1.3457697E2,4.2193585E2,5.9689167E1,2.6436176E0,2.4142658E1,1.4824387E0,1.0748204E0,2.8931454E2,6.0421944E1,1.68789E1,4.4642544E0,1.3512484E1,1.22479485E2,1.1687629E2,1.1829391E3,2.4854057E1,8.098388E0,3.9605107E0,3.8509815E0,5.4013386E0,4.7348244E1,1.6451509E0,1.7323756E0,1.1009294E1,1.3084608E0,1.6254042E2,2.7580383E0,1.8829369E1,4.7425034E1,6.69699E1,2.8074924E1,3.2827299E0,4.085187E1,9.4607155E1,2.0677106E2,8.742986E1,1.7951962E0,5.5789533E0,5.909576E1,4.562234E0,1.5661235E1,8.454124E1,5.0035732E1,3.6870718E2,5.3228672E1,2.6417595E1,3.3271572E1,1.1962416E0,1.447376E0],"tree_param":{"num_deleted":"0","num_feature":"100","num_nodes":"103","size_leaf_vector":"1"}},{"base_weights":[1.388446E-1,3.4311432E-1,-7.224591E-3,8.419752E-1,3.0722857E-1,4.192886E-1,-1.0880872E-1,-5.5544253E-2,8.769371E-1,-1.9400118E-1,3.682496E-1,2.7872628E-1,7.422298E-1,-1.8262105E-1,5.897875E-1,1.0543959E0,7.4076766E-1,5.071499E-1,-6.4680165E-1,3.135626E-1,7.5149125E-1,1.681785E-1,8.292829E-1,9.6103185E-1,-3.4670062E-2,-2.2412507E-1,7.849406E-1,3.480557E-2,8.017051E-1,2.8143523E-2,1.099226E-1,8.790807E-1,-9.384058E-1,1.8627204E-1,1.15768544E-1,-1.525498E-1,-1.8704882E0,7.1693584E-2,3.8102657E-1,8.1305885E-1,-2.3106965E-1,-1.307878E0,2.523914E-1,-1.5474074E-1,9.510236E-1,-5.382241E-1,1.0408812E0,-1.1745161E0,3.738117E-1,-4.9921682E-1,-7.8843646E-2,9.813692E-1,3.682091E-1,5.505308E-1,-1.1563028E0,-6.813572E-2,8.31681E-1,9.639135E-2,2.943031E-2,7.666334E-2,-2.2878793E-1,7.261202E-2,-6.282716E-2,7.743543E-2,-7.949514E-2,2.3421846E-2,-2.5524765E-1,3.033712E-2,-8.190416E-2,3.280486E-2,9.881578E-2,5.3058993E-2,9.507548E-2,9.481209E-2,-1.2178055E-1,-2.8093174E-1,5.6179404E-2,-1.2463104E-2,4.7636833E-2,-3.562803E-2,9.913046E-2,-1.6153692E-1,9.525221E-2,4.8454244E-2,1.077586E-1,-2.6889822E-1,4.7063027E-2,-2.1600035E-1,6.3084416E-2,-5.9602838E-2,4.7680542E-2,2.3226943E-2,-3.223783E-2,1.0388006E-1,-4.4943668E-2,8.440233E-2,-2.3075126E-1,7.9260156E-2,-2.086002E-1,-3.4333804E-1,1.41582955E-2,2.6727105E-2,9.237494E-2],"categories":[],"categories_nodes":[],"categories_segments":[],"categories_sizes":[],"default_left":[0,0,0,0,0,0,0,0,0,0,0,0,0,0,0,0,0,0,0,0,0,0,0,0,0,0,0,0,0,0,0,0,0,0,0,0,0,0,0,0,0,0,0,0,0,0,0,0,0,0,0,0,0,0,0,0,0,0,0,0,0,0,0,0,0,0,0,0,0,0,0,0,0,0,0,0,0,0,0,0,0,0,0,0,0,0,0,0,0,0,0,0,0,0,0,0,0,0,0,0,0,0,0],"id":7,"left_children":[1,3,5,7,9,11,13,-1,15,17,19,21,23,25,27,29,31,33,35,37,39,41,43,45,47,49,51,53,55,-1,-1,57,59,61,-1,63,65,67,69,71,73,75,77,-1,79,81,83,85,87,89,91,93,95,97,99,-1,101,-1,-1,-1,-1,-1,-1,-1,-1,-1,-1,-1,-1,-1,-1,-1,-1,-1,-1,-1,-1,-1,-1,-1,-1,-1,-1,-1,-1,-1,-1,-1,-1,-1,-1,-1,-1,-1,-1,-1,-1,-1,-1,-1,-1,-1,-1],"loss_changes":[1.02947495E2,2.5493896E1,8.724793E1,5.175453E0,4.1165215E1,1.7376617E1,8.396783E1,0E0,1.4905853E0,4.6830273E1,2.4874466E1,1.6384117E1,1.9899567E1,5.9274036E1,1.8277878E1,1.02314E0,1.3959688E1,1.1898716E1,5.38072E1,1.7109222E1,9.195305E0,2.8589867E1,1.453334E1,1.1480873E1,1.2845941E1,5.638817E1,4.6117516E0,2.769921E1,5.572075E0,0E0,0E0,2.333973E0,1.276957E1,1.807027E1,0E0,3.9197395E1,3.7404533E1,4.7768734E1,2.6080482E1,4.9540176E0,1.2276474E1,3.647839E1,1.8292042E1,0E0,2.6471748E0,1.0004065E1,1.2534103E0,1.938236E1,1.4632527E1,4.6373306E1,7.0169205E1,3.8104897E0,2.8763792E1,2.1707405E1,4.078003E1,0E0,5.51136E0,0E0,0E0,0E0,0E0,0E0,0E0,0E0,0E0,0E0,0E0,0E0,0E0,0E0,0E0,0E0,0E0,0E0,0E0,0E0,0E0,0E0,0E0,0E0,0E0,0E0,0E0,0E0,0E0,0E0,0E0,0E0,0E0,0E0,0E0,0E0,0E0,0E0,0E0,0E0,0E0,0E0,0E0,0E0,0E0,0E0,0E0],"parents":[2147483647,0,0,1,1,2,2,3,3,4,4,5,5,6,6,8,8,9,9,10,10,11,11,12,12,13,13,14,14,15,15,16,16,17,17,18,18,19,19,20,20,21,21,22,22,23,23,24,24,25,25,26,26,27,27,28,28,31,31,32,32,33,33,35,35,36,36,37,37,38,38,39,39,40,40,41,41,42,42,44,44,45,45,46,46,47,47,48,48,49,49,50,50,51,51,52,52,53,53,54,54,56,56],"right_children":[2,4,6,8,10,12,14,-1,16,18,20,22,24,26,28,30,32,34,36,38,40,42,44,46,48,50,52,54,56,-1,-1,58,60,62,-1,64,66,68,70,72,74,76,78,-1,80,82,84,86,88,90,92,94,96,98,100,-1,102,-1,-1,-1,-1,-1,-1,-1,-1,-1,-1,-1,-1,-1,-1,-1,-1,-1,-1,-1,-1,-1,-1,-1,-1,-1,-1,-1,-1,-1,-1,-1,-1,-1,-1,-1,-1,-1,-1,-1,-1,-1,-1,-1,-1,-1,-1],"split_conditions":[1.0967961E-2,1.8644355E-2,2.0148163E-3,-8.132577E-3,1.527949E-1,4.961894E-2,4.157161E-2,-5.5544253E-2,-2.2975022E-2,-4.7954456E-3,-1.8589966E-2,-2.0431396E-2,1.1517636E-1,-1.4877616E-2,-5.160922E-1,-7.423707E-3,9.354534E-3,1.8690683E-2,1.410954E-1,-3.8025108E-1,1.866246E-2,5.578543E-2,2.9928654E-2,2.9691668E-2,-3.4125596E-2,3.077702E-2,-2.4603015E-2,-2.4839947E-1,1.1598738E-2,2.8143523E-2,1.099226E-1,8.1958264E-2,-8.4188454E-2,4.5046564E-2,1.15768544E-1,1.1368338E-3,2.2050109E-2,-4.3885776E-1,1.850705E-1,1.598901E-1,3.905048E-2,-2.0632502E-2,-3.4974255E-2,-1.5474074E-1,8.235754E-3,-1.01724796E-1,1.2194775E-2,5.8538266E-2,1.6043473E-2,-2.2934189E-2,1.5797247E-1,-6.413491E-2,1.6474003E-1,1.5055026E-2,-7.027046E-1,-6.813572E-2,2.058502E-2,9.639135E-2,2.943031E-2,7.666334E-2,-2.2878793E-1,7.261202E-2,-6.282716E-2,7.743543E-2,-7.949514E-2,2.3421846E-2,-2.5524765E-1,3.033712E-2,-8.190416E-2,3.280486E-2,9.881578E-2,5.3058993E-2,9.507548E-2,9.481209E-2,-1.2178055E-1,-2.8093174E-1,5.6179404E-2,-1.2463104E-2,4.7636833E-2,-3.562803E-2,9.913046E-2,-1.6153692E-1,9.525221E-2,4.8454244E-2,1.077586E-1,-2.6889822E-1,4.7063027E-2,-2.1600035E-1,6.3084416E-2,-5.9602838E-2,4.7680542E-2,2.3226943E-2,-3.223783E-2,1.0388006E-1,-4.4943668E-2,8.440233E-2,-2.3075126E-1,7.9260156E-2,-2.086002E-1,-3.4333804E-1,1.41582955E-2,2.6727105E-2,9.237494E-2],"split_indices":[24,29,36,18,59,29,61,0,76,18,85,63,40,85,97,18,60,57,55,9,62,89,86,61,63,61,63,37,24,0,0,16,0,86,0,81,29,46,13,4,57,12,12,0,62,34,24,29,62,63,25,34,50,36,8,0,62,0,0,0,0,0,0,0,0,0,0,0,0,0,0,0,0,0,0,0,0,0,0,0,0,0,0,0,0,0,0,0,0,0,0,0,0,0,0,0,0,0,0,0,0,0,0],"split_type":[0,0,0,0,0,0,0,0,0,0,0,0,0,0,0,0,0,0,0,0,0,0,0,0,0,0,0,0,0,0,0,0,0,0,0,0,0,0,0,0,0,0,0,0,0,0,0,0,0,0,0,0,0,0,0,0,0,0,0,0,0,0,0,0,0,0,0,0,0,0,0,0,0,0,0,0,0,0,0,0,0,0,0,0,0,0,0,0,0,0,0,0,0,0,0,0,0,0,0,0,0,0,0],"sum_hessian":[3.4491875E3,1.4375308E3,2.0116566E3,9.496234E1,1.3425685E3,3.863581E2,1.6252985E3,1.9544947E0,9.300784E1,1.4547232E2,1.1970962E3,2.70489E2,1.15869064E2,1.470651E3,1.5464757E2,3.7453888E1,5.555396E1,5.703496E1,8.8437355E1,1.0491981E3,1.4789798E2,2.2634587E2,4.4143147E1,9.022232E1,2.5646748E1,1.4108982E3,5.9752785E1,4.3055527E1,1.1159204E2,2.4521248E0,3.5001762E1,5.176645E1,3.7875094E0,3.9056576E1,1.7978388E1,6.3794975E1,2.4642378E1,2.2927469E2,8.1992346E2,1.3933942E2,8.558551E0,1.1432368E1,2.149135E2,1.5803322E0,4.2562813E1,4.271923E0,8.595039E1,6.271407E0,1.9375341E1,4.8676596E2,9.241322E2,3.968985E1,2.0062937E1,3.0421463E1,1.2634063E1,1.7803202E0,1.0981172E2,4.4641968E1,7.12448E0,1.8641217E0,1.9233878E0,2.355427E1,1.5502306E1,2.6030647E1,3.7764328E1,6.1914134E0,1.8450964E1,1.8247333E2,4.680136E1,7.555361E2,6.438738E1,4.725469E1,9.208473E1,3.9168663E0,4.6416845E0,6.061839E0,5.370529E0,8.025801E1,1.3465549E2,1.0377629E0,4.152505E1,2.4314623E0,1.840461E0,6.198595E0,7.97518E1,2.935027E0,3.3363805E0,1.1025755E0,1.8272766E1,4.4319485E2,4.3571133E1,4.0578818E2,5.18344E2,3.842161E1,1.268238E0,1.7615072E1,2.447864E0,2.8503792E1,1.9176713E0,3.9894326E0,8.64463E0,1.5948026E1,9.38637E1],"tree_param":{"num_deleted":"0","num_feature":"100","num_nodes":"103","size_leaf_vector":"1"}},{"base_weights":[1.2742244E-1,3.1770542E-1,-6.030888E-3,8.085023E-1,2.8372118E-1,3.898375E-1,-9.727018E-2,-5.0571557E-2,8.443504E-1,-1.7020941E-1,3.4078482E-1,2.5624695E-1,7.082869E-1,-3.2019797E-1,1.0183971E-1,1.0266685E0,7.067101E-1,4.8331854E-1,-5.580588E-1,2.888025E-1,7.174604E-1,1.6559167E-1,8.680945E-1,9.3077254E-1,-4.3160018E-2,-1.9597718E-2,-5.7209134E-1,6.3277256E-1,2.0095943E-3,2.6506264E-2,1.0736121E-1,8.4738356E-1,-8.335229E-1,1.8818982E-1,1.13059044E-1,-1.5488286E0,-1.2979168E-1,2.6440617E-1,9.278987E-1,7.753754E-1,-2.841899E-1,-7.8190786E-1,2.3356152E-1,-1.3716148E-1,1.0297443E0,-4.8488444E-1,1.0132452E0,1.00755565E-1,-4.3963468E-1,4.5184755E-1,-2.4666584E-1,2.0446883E-1,-6.8747157E-1,4.0426922E-1,1.0265191E0,-1.366164E-1,5.553146E-1,9.349212E-2,2.7366836E-2,3.641329E-2,-2.601361E-1,6.88483E-2,-5.202601E-2,3.105531E-2,-2.1642947E-1,7.3199354E-2,-6.494007E-2,2.2190621E-2,6.355429E-2,-7.30249E-2,1.0194919E-1,1.05234556E-1,6.086753E-2,9.948874E-2,-1.8877743E-1,-1.9439596E-1,8.9651376E-2,8.3224945E-2,8.57382E-3,-3.340973E-2,1.0866213E-1,-1.4586776E-1,9.216604E-2,4.558938E-2,1.0518453E-1,-1.2217005E-1,6.2423747E-2,5.5855274E-2,-3.1933805E-1,-1.10699944E-1,-7.6598446E-3,-5.9278335E-2,8.9459464E-2,-1.1278436E-1,-3.709401E-2,-1.835322E-1,5.0525207E-2,1.1381602E-1,4.5781907E-2,8.2289346E-2,-1.8799186E-2,1.1422398E-3,7.750015E-2],"categories":[],"categories_nodes":[],"categories_segments":[],"categories_sizes":[],"default_left":[0,0,0,0,0,0,0,0,0,0,0,0,0,0,0,0,0,0,0,0,0,0,0,0,0,0,0,0,0,0,0,0,0,0,0,0,0,0,0,0,0,0,0,0,0,0,0,0,0,0,0,0,0,0,0,0,0,0,0,0,0,0,0,0,0,0,0,0,0,0,0,0,0,0,0,0,0,0,0,0,0,0,0,0,0,0,0,0,0,0,0,0,0,0,0,0,0,0,0,0,0,0,0],"id":8,"left_children":[1,3,5,7,9,11,13,-1,15,17,19,21,23,25,27,29,31,33,35,37,39,41,43,45,47,49,51,53,55,-1,-1,57,59,61,-1,63,65,67,69,71,73,75,77,-1,79,81,83,-1,85,87,89,91,93,95,97,99,101,-1,-1,-1,-1,-1,-1,-1,-1,-1,-1,-1,-1,-1,-1,-1,-1,-1,-1,-1,-1,-1,-1,-1,-1,-1,-1,-1,-1,-1,-1,-1,-1,-1,-1,-1,-1,-1,-1,-1,-1,-1,-1,-1,-1,-1,-1],"loss_changes":[8.6529465E1,2.319928E1,7.241134E1,4.6870346E0,3.4126297E1,1.5793854E1,7.2349976E1,0E0,1.492691E0,3.766697E1,2.267627E1,1.4616678E1,1.849923E1,5.8208443E1,4.5653107E1,9.960022E-1,1.2315216E1,1.0386613E1,3.928354E1,1.5792763E1,8.402771E0,1.5188533E1,1.3760025E1,1.0442444E1,1.1348182E1,3.7749004E1,3.762021E1,1.1850243E1,5.5764225E1,0E0,0E0,2.2346687E0,1.1508305E1,1.4290656E1,0E0,3.2706566E1,3.005752E1,1.550946E1,6.4282646E0,5.528305E0,1.9192532E1,3.2610256E1,1.923757E1,0E0,2.874817E0,8.697442E0,1.26017E0,0E0,1.7155334E1,4.6376522E1,3.4729748E1,3.0726393E1,5.0378616E1,2.0809383E1,2.6160278E0,2.881376E1,1.7394905E1,0E0,0E0,0E0,0E0,0E0,0E0,0E0,0E0,0E0,0E0,0E0,0E0,0E0,0E0,0E0,0E0,0E0,0E0,0E0,0E0,0E0,0E0,0E0,0E0,0E0,0E0,0E0,0E0,0E0,0E0,0E0,0E0,0E0,0E0,0E0,0E0,0E0,0E0,0E0,0E0,0E0,0E0,0E0,0E0,0E0,0E0],"parents":[2147483647,0,0,1,1,2,2,3,3,4,4,5,5,6,6,8,8,9,9,10,10,11,11,12,12,13,13,14,14,15,15,16,16,17,17,18,18,19,19,20,20,21,21,22,22,23,23,24,24,25,25,26,26,27,27,28,28,31,31,32,32,33,33,35,35,36,36,37,37,38,38,39,39,40,40,41,41,42,42,44,44,45,45,46,46,48,48,49,49,50,50,51,51,52,52,53,53,54,54,55,55,56,56],"right_children":[2,4,6,8,10,12,14,-1,16,18,20,22,24,26,28,30,32,34,36,38,40,42,44,46,48,50,52,54,56,-1,-1,58,60,62,-1,64,66,68,70,72,74,76,78,-1,80,82,84,-1,86,88,90,92,94,96,98,100,102,-1,-1,-1,-1,-1,-1,-1,-1,-1,-1,-1,-1,-1,-1,-1,-1,-1,-1,-1,-1,-1,-1,-1,-1,-1,-1,-1,-1,-1,-1,-1,-1,-1,-1,-1,-1,-1,-1,-1,-1,-1,-1,-1,-1,-1,-1],"split_conditions":[1.0967961E-2,1.8644355E-2,2.0148163E-3,-8.132577E-3,1.527949E-1,4.961894E-2,9.828586E-2,-5.0571557E-2,-2.2975022E-2,-4.844161E-3,-1.8589966E-2,-1.9507002E-2,1.1517636E-1,9.890862E-2,8.352591E-2,-7.423707E-3,9.354534E-3,1.8690683E-2,-4.9758467E-1,-2.365003E-2,2.4568133E-1,5.578543E-2,2.9928654E-2,2.9691668E-2,1.9911778E-1,-8.282438E-2,-3.7978586E-2,-1.3305995E-1,4.157161E-2,2.6506264E-2,1.0736121E-1,8.1958264E-2,-3.6526322E-2,4.5046564E-2,1.13059044E-1,2.2050109E-2,1.1368338E-3,2.2862665E-2,1.3044754E-1,1.19502675E-2,-7.384712E-1,-2.0848311E-2,3.5658892E-2,-1.3716148E-1,8.235754E-3,5.3436875E-2,1.2194775E-2,1.00755565E-1,5.9426E-2,3.3864117E-1,-2.7615488E-1,-4.7492215E-1,5.180813E-2,2.731301E-1,-2.6818741E-2,-1.7684665E-1,-5.160922E-1,9.349212E-2,2.7366836E-2,3.641329E-2,-2.601361E-1,6.88483E-2,-5.202601E-2,3.105531E-2,-2.1642947E-1,7.3199354E-2,-6.494007E-2,2.2190621E-2,6.355429E-2,-7.30249E-2,1.0194919E-1,1.05234556E-1,6.086753E-2,9.948874E-2,-1.8877743E-1,-1.9439596E-1,8.9651376E-2,8.3224945E-2,8.57382E-3,-3.340973E-2,1.0866213E-1,-1.4586776E-1,9.216604E-2,4.558938E-2,1.0518453E-1,-1.2217005E-1,6.2423747E-2,5.5855274E-2,-3.1933805E-1,-1.10699944E-1,-7.6598446E-3,-5.9278335E-2,8.9459464E-2,-1.1278436E-1,-3.709401E-2,-1.835322E-1,5.0525207E-2,1.1381602E-1,4.5781907E-2,8.2289346E-2,-1.8799186E-2,1.1422398E-3,7.750015E-2],"split_indices":[24,29,36,18,59,29,6,0,76,18,85,63,40,75,89,18,60,57,39,12,48,89,86,61,3,34,85,45,61,0,0,16,73,86,0,29,81,62,93,62,8,77,29,0,62,29,24,0,29,44,70,51,29,71,63,38,97,0,0,0,0,0,0,0,0,0,0,0,0,0,0,0,0,0,0,0,0,0,0,0,0,0,0,0,0,0,0,0,0,0,0,0,0,0,0,0,0,0,0,0,0,0,0],"split_type":[0,0,0,0,0,0,0,0,0,0,0,0,0,0,0,0,0,0,0,0,0,0,0,0,0,0,0,0,0,0,0,0,0,0,0,0,0,0,0,0,0,0,0,0,0,0,0,0,0,0,0,0,0,0,0,0,0,0,0,0,0,0,0,0,0,0,0,0,0,0,0,0,0,0,0,0,0,0,0,0,0,0,0,0,0,0,0,0,0,0,0,0,0,0,0,0,0,0,0,0,0,0,0],"sum_hessian":[3.4064153E3,1.4036522E3,2.0027631E3,8.942301E1,1.3142292E3,3.7452106E2,1.628242E3,2.0264008E0,8.739661E1,1.465409E2,1.1676884E3,2.6511087E2,1.09410194E2,7.678888E2,8.603532E2,3.4817856E1,5.2578754E1,5.4485847E1,9.2055046E1,1.0276381E3,1.400503E2,2.32006E2,3.3104866E1,8.4232346E1,2.5177853E1,3.5058792E2,4.1730087E2,1.3532217E2,7.25031E2,2.4073741E0,3.241048E1,4.8590675E1,3.9880774E0,3.8309208E1,1.617664E1,2.6992664E1,6.506238E1,9.91214E2,3.6424065E1,1.326088E2,7.441489E0,1.4826122E1,2.1717987E2,1.7246184E0,3.1380249E1,4.368419E0,7.986393E1,6.475513E0,1.870234E1,1.13645004E2,2.369429E2,5.3881603E1,3.6341925E2,8.691147E1,4.8410706E1,5.803758E2,1.4465526E2,4.1611927E1,6.97875E0,2.8507833E0,1.1372943E0,2.2469723E1,1.5839484E1,6.8359694E0,2.0156694E1,2.4319355E1,4.0743027E1,8.9080334E2,1.0041065E2,1.54168E0,3.4882385E1,4.78289E1,8.47799E1,4.3507543E0,3.0907347E0,8.667198E0,6.158924E0,4.2088882E1,1.7509099E2,1.0611506E0,3.0319098E1,2.5594032E0,1.809016E0,6.002582E0,7.386134E1,1.0693246E1,8.009093E0,1.1123563E2,2.40938E0,3.8198074E1,1.9874483E2,2.5065872E1,2.8815731E1,1.5090736E2,2.1251189E2,3.008761E0,8.39027E1,3.962969E1,8.781017E0,2.8732784E1,5.51643E2,4.192096E1,1.027343E2],"tree_param":{"num_deleted":"0","num_feature":"100","num_nodes":"103","size_leaf_vector":"1"}},{"base_weights":[1.17110044E-1,2.9369923E-1,-4.5320056E-3,2.6575392E-1,8.718954E-1,3.6330765E-1,-8.6826935E-2,7.1384823E-1,2.3763746E-1,9.3969315E-1,-5.921813E-1,2.3595935E-1,6.7762727E-1,-1.4536873E-1,5.2200586E-1,7.981211E-1,-2.4963482E-1,-9.885584E-2,2.822799E-1,1.0201788E0,4.4153178E-1,6.4055465E-2,-1.7287669E-1,1.0494057E-1,6.233897E-1,9.019868E-1,-3.4678664E-2,-2.1179864E-1,3.2693687E-1,7.5801456E-1,6.2185347E-2,-4.5561036E-1,8.444071E-1,-2.3211832E-1,6.2617344E-1,-3.4584814E-1,8.7453026E-1,1.0256644E0,2.557225E-1,1.3299771E-2,1.03715315E-1,-9.741356E-2,7.668878E-1,3.6479363E-1,-4.857763E-1,-1.4239804E-1,7.10341E-1,-7.294581E-1,9.710989E-1,-1.0364553E0,3.4471595E-1,-4.4938686E-1,-7.2813086E-2,1.3973957E-1,7.4473995E-1,4.9517697E-1,1.11503325E-1,-2.709261E0,3.5322893E-1,5.8524646E-2,-1.248798E-1,9.7251326E-2,5.5590577E-2,9.517536E-3,8.523952E-2,2.57335E-2,-6.502945E-2,-8.5913144E-2,9.667008E-2,8.69548E-3,1.10011816E-1,3.532989E-2,1.0608436E-2,-1.9828228E-3,9.603977E-2,-4.574498E-2,5.5554193E-2,-6.5088995E-2,9.902973E-2,8.882785E-2,1.1521876E-2,6.30174E-2,-1.5881166E-1,1.0198321E-1,-1.086028E-1,-2.1745868E-1,4.1233677E-2,-1.8127209E-1,5.9435762E-2,-5.336873E-2,3.170988E-2,2.7310206E-2,-3.169589E-2,2.5433406E-2,-6.0365945E-2,-7.9501584E-2,7.8962736E-2,7.303255E-2,-2.3470108E-1,-2.69585E-2,-3.3809778E-1,6.0002167E-2,-7.822944E-2],"categories":[],"categories_nodes":[],"categories_segments":[],"categories_sizes":[],"default_left":[0,0,0,0,0,0,0,0,0,0,0,0,0,0,0,0,0,0,0,0,0,0,0,0,0,0,0,0,0,0,0,0,0,0,0,0,0,0,0,0,0,0,0,0,0,0,0,0,0,0,0,0,0,0,0,0,0,0,0,0,0,0,0,0,0,0,0,0,0,0,0,0,0,0,0,0,0,0,0,0,0,0,0,0,0,0,0,0,0,0,0,0,0,0,0,0,0,0,0,0,0,0,0],"id":9,"left_children":[1,3,5,7,9,11,13,15,17,19,21,23,25,27,29,31,33,35,37,39,41,-1,-1,43,45,47,49,51,53,55,57,59,61,-1,63,65,67,69,71,-1,-1,-1,73,75,77,-1,79,81,83,85,87,89,91,93,95,97,-1,99,101,-1,-1,-1,-1,-1,-1,-1,-1,-1,-1,-1,-1,-1,-1,-1,-1,-1,-1,-1,-1,-1,-1,-1,-1,-1,-1,-1,-1,-1,-1,-1,-1,-1,-1,-1,-1,-1,-1,-1,-1,-1,-1,-1,-1],"loss_changes":[7.2303085E1,2.1951302E1,6.0392784E1,1.6347878E1,6.7957153E0,1.444006E1,5.8181988E1,6.4437523E0,1.8581856E1,1.9737549E0,5.8646264E0,1.3188645E1,1.6753098E1,4.675682E1,1.5495743E1,4.502529E0,1.4058214E1,3.5262047E1,2.1271027E1,6.3443375E-1,5.4326024E0,0E0,0E0,3.0313139E1,1.2722332E1,9.684387E0,1.0248929E1,4.306542E1,1.4277399E1,8.320824E0,4.1019337E1,3.35294E0,2.0015411E0,0E0,6.0004544E-1,2.159741E1,5.5784645E0,2.5105362E0,1.5358376E1,0E0,0E0,0E0,1.363491E0,2.172865E1,1.5367044E1,0E0,6.6505966E0,5.444589E0,8.806961E0,1.3096432E1,1.1648386E1,3.128228E1,6.9731026E1,1.1076066E1,4.544161E0,3.9314976E1,0E0,7.0127983E0,1.3313295E1,0E0,0E0,0E0,0E0,0E0,0E0,0E0,0E0,0E0,0E0,0E0,0E0,0E0,0E0,0E0,0E0,0E0,0E0,0E0,0E0,0E0,0E0,0E0,0E0,0E0,0E0,0E0,0E0,0E0,0E0,0E0,0E0,0E0,0E0,0E0,0E0,0E0,0E0,0E0,0E0,0E0,0E0,0E0,0E0],"parents":[2147483647,0,0,1,1,2,2,3,3,4,4,5,5,6,6,7,7,8,8,9,9,10,10,11,11,12,12,13,13,14,14,15,15,16,16,17,17,18,18,19,19,20,20,23,23,24,24,25,25,26,26,27,27,28,28,29,29,30,30,31,31,32,32,34,34,35,35,36,36,37,37,38,38,42,42,43,43,44,44,46,46,47,47,48,48,49,49,50,50,51,51,52,52,53,53,54,54,55,55,57,57,58,58],"right_children":[2,4,6,8,10,12,14,16,18,20,22,24,26,28,30,32,34,36,38,40,42,-1,-1,44,46,48,50,52,54,56,58,60,62,-1,64,66,68,70,72,-1,-1,-1,74,76,78,-1,80,82,84,86,88,90,92,94,96,98,-1,100,102,-1,-1,-1,-1,-1,-1,-1,-1,-1,-1,-1,-1,-1,-1,-1,-1,-1,-1,-1,-1,-1,-1,-1,-1,-1,-1,-1,-1,-1,-1,-1,-1,-1,-1,-1,-1,-1,-1,-1,-1,-1,-1,-1,-1],"split_conditions":[1.0967961E-2,-8.482686E-3,2.0148163E-3,-2.2458665E-3,1.638176E-2,4.961894E-2,4.157161E-2,4.90853E-2,1.8824903E-2,-6.25157E-4,-3.4438953E-1,-2.1826413E-2,1.1517636E-1,-1.9181153E-2,1.742252E-1,2.79033E-2,3.853192E-2,-1.35669885E-2,2.289857E-2,-2.1233533E-2,-1.35669885E-2,6.4055465E-2,-1.7287669E-1,-2.6500877E-2,3.366636E-2,3.6195617E-2,-3.4125596E-2,3.1321283E-2,-1.4877616E-2,3.4964895E-1,2.0772092E-1,6.190014E-3,8.694416E-2,-2.3211832E-1,-1.8558292E-1,-2.5057016E-2,2.840294E-3,1.6181004E-1,-3.8907188E-1,1.3299771E-2,1.03715315E-1,-9.741356E-2,-1.0247962E-3,-3.8375545E-2,-1.9507002E-2,-1.4239804E-1,4.1819125E-2,-2.794095E-1,-2.186933E-2,5.8538266E-2,1.6043473E-2,1.5693621E-1,1.5797247E-1,1.1562539E-2,7.671724E-2,2.2805789E-1,1.11503325E-1,1.1945015E-2,3.6239445E-2,5.8524646E-2,-1.248798E-1,9.7251326E-2,5.5590577E-2,9.517536E-3,8.523952E-2,2.57335E-2,-6.502945E-2,-8.5913144E-2,9.667008E-2,8.69548E-3,1.10011816E-1,3.532989E-2,1.0608436E-2,-1.9828228E-3,9.603977E-2,-4.574498E-2,5.5554193E-2,-6.5088995E-2,9.902973E-2,8.882785E-2,1.1521876E-2,6.30174E-2,-1.5881166E-1,1.0198321E-1,-1.086028E-1,-2.1745868E-1,4.1233677E-2,-1.8127209E-1,5.9435762E-2,-5.336873E-2,3.170988E-2,2.7310206E-2,-3.169589E-2,2.5433406E-2,-6.0365945E-2,-7.9501584E-2,7.8962736E-2,7.303255E-2,-2.3470108E-1,-2.69585E-2,-3.3809778E-1,6.0002167E-2,-7.822944E-2],"split_indices":[24,85,36,36,62,29,61,29,57,18,0,85,40,85,31,86,61,12,61,18,12,0,0,85,86,60,63,61,85,71,98,62,40,0,73,85,62,66,23,0,0,0,24,12,63,0,60,0,77,29,62,13,25,36,16,48,0,24,24,0,0,0,0,0,0,0,0,0,0,0,0,0,0,0,0,0,0,0,0,0,0,0,0,0,0,0,0,0,0,0,0,0,0,0,0,0,0,0,0,0,0,0,0],"split_type":[0,0,0,0,0,0,0,0,0,0,0,0,0,0,0,0,0,0,0,0,0,0,0,0,0,0,0,0,0,0,0,0,0,0,0,0,0,0,0,0,0,0,0,0,0,0,0,0,0,0,0,0,0,0,0,0,0,0,0,0,0,0,0,0,0,0,0,0,0,0,0,0,0,0,0,0,0,0,0,0,0,0,0,0,0,0,0,0,0,0,0,0,0,0,0,0,0,0,0,0,0,0,0],"sum_hessian":[3.3648982E3,1.371892E3,1.9930062E3,1.3100352E3,6.1856846E1,3.6374295E2,1.6292633E3,7.590723E1,1.2341279E3,5.94615E1,2.3953488E0,2.6010904E2,1.0363391E2,1.4870396E3,1.4222375E2,6.99597E1,5.947526E0,1.444112E2,1.0897167E3,5.0288696E1,9.172802E0,1.3584267E0,1.0369221E0,1.9532584E2,6.478321E1,7.860797E1,2.5025946E1,1.3041605E3,1.8287897E2,9.35563E1,4.866746E1,2.1759963E0,6.778371E1,1.2769127E0,4.670613E0,1.1569804E2,2.8713154E1,3.628967E1,1.0534271E3,1.109975E0,4.9178722E1,1.3415365E0,7.831265E0,1.359185E2,5.9407333E1,2.0127954E0,6.2770416E1,2.8063838E0,7.580158E1,6.398662E0,1.8627283E1,4.8051422E2,8.236463E2,1.272147E2,5.5664276E1,5.5260456E1,3.829584E1,3.8354852E0,4.4831974E1,1.0544534E0,1.1215429E0,4.529846E1,2.2485245E1,1.8198036E0,2.8508096E0,3.8860523E1,7.683751E1,1.0294194E0,2.7683735E1,2.8261087E0,3.346356E1,6.368121E2,4.1661502E2,1.7231835E0,6.108082E0,2.533044E1,1.10588066E2,5.3933384E1,5.473951E0,4.794314E1,1.4827274E1,1.1892985E0,1.6170853E0,7.453998E1,1.2616057E0,3.3029723E0,3.09569E0,1.282495E0,1.7344788E1,4.3317596E2,4.7338272E1,3.407459E2,4.829004E2,1.10793785E2,1.6420914E1,1.1034019E0,5.4560875E1,5.1724102E1,3.5363533E0,1.1305748E0,2.7049105E0,3.7215263E1,7.616713E0],"tree_param":{"num_deleted":"0","num_feature":"100","num_nodes":"103","size_leaf_vector":"1"}},{"base_weights":[1.0721634E-1,4.1290134E-1,4.456625E-2,6.72613E-1,2.9564244E-1,1.7265339E-1,-9.54299E-2,9.643059E-1,4.349636E-1,1.4876921E-1,6.755496E-1,1.2124475E-1,7.8966945E-1,2.0708989E-1,-2.7450076E-1,-2.4696916E-1,1.0336033E0,-6.0203884E-2,7.0420074E-1,-2.4149716E0,1.8324795E-1,7.11913E-1,-4.188259E-1,1.6357487E-1,-4.7724453E-1,1.3095337E-1,9.807049E-1,8.5993695E-1,1.3506524E-1,4.599754E-1,-3.3500966E-1,8.536548E-2,-1.7714171E-1,6.56684E-1,1.1175725E0,-1.1469263E0,2.7860188E-1,9.8495376E-1,8.720913E-2,-2.9376134E-1,-6.497812E-2,2.417979E-1,-1.1400682E0,6.0987E-1,1.0553241E-1,4.454764E-2,-1.3900714E-1,8.572264E-2,6.683582E-1,7.113759E-1,-9.4482386E-1,8.5626173E-1,-1.8795687E0,-2.7059883E-1,1.0222801E0,9.595832E-1,-4.5697477E-1,-7.7406496E-1,1.83702E-1,1.5809377E-1,9.50894E-1,-9.1494787E-1,-2.7187458E-1,1.0184022E-1,-1.8069403E-1,1.13330916E-1,2.8320113E-2,5.629951E-4,-3.6995065E-1,-9.7535945E-2,5.6803104E-2,1.0908357E-1,1.06352065E-2,-1.14434816E-1,3.763361E-2,9.998856E-2,9.072664E-3,-1.6557145E-1,8.31448E-2,1.6146434E-2,8.00151E-2,1.5053572E-2,-8.570353E-2,3.8651463E-2,9.3547836E-2,1.0097803E-1,-1.9790044E-1,-1.9369294E-1,1.3763121E-2,1.0524352E-1,-1.0257013E-1,-4.2280856E-1,1.2331597E-2,-1.24029875E-1,7.042347E-2,5.586778E-2,1.07888095E-1,-3.6316365E-2,9.984111E-2,-1.909876E-1,7.7655934E-2,-2.3835674E-1,2.4776688E-2,9.358261E-2,1.1271511E-2,-2.672943E-2,9.841325E-2,-5.6830484E-2,1.1846204E-1,-3.0329302E-2,-2.5902304E-1,5.0833292E-2,-3.728296E-2],"categories":[],"categories_nodes":[],"categories_segments":[],"categories_sizes":[],"default_left":[0,0,0,0,0,0,0,0,0,0,0,0,0,0,0,0,0,0,0,0,0,0,0,0,0,0,0,0,0,0,0,0,0,0,0,0,0,0,0,0,0,0,0,0,0,0,0,0,0,0,0,0,0,0,0,0,0,0,0,0,0,0,0,0,0,0,0,0,0,0,0,0,0,0,0,0,0,0,0,0,0,0,0,0,0,0,0,0,0,0,0,0,0,0,0,0,0,0,0,0,0,0,0,0,0,0,0,0,0,0,0,0,0],"id":10,"left_children":[1,3,5,7,9,11,13,15,17,19,21,23,25,27,29,31,33,35,37,39,41,43,45,47,49,51,53,55,57,59,61,-1,-1,63,65,67,69,71,73,-1,-1,75,77,79,-1,-1,-1,81,83,85,87,89,91,93,95,97,99,101,103,105,107,109,111,-1,-1,-1,-1,-1,-1,-1,-1,-1,-1,-1,-1,-1,-1,-1,-1,-1,-1,-1,-1,-1,-1,-1,-1,-1,-1,-1,-1,-1,-1,-1,-1,-1,-1,-1,-1,-1,-1,-1,-1,-1,-1,-1,-1,-1,-1,-1,-1,-1,-1],"loss_changes":[6.3711964E1,1.7034653E1,4.955916E1,1.1728371E1,2.1753128E1,4.56809E1,7.1602646E1,6.7901306E0,1.3159208E1,2.55235E1,4.632492E0,3.385702E1,1.3815872E1,2.3001766E1,3.704364E1,9.93515E0,1.60289E0,1.3417893E1,1.0967865E1,1.6299438E0,2.2040047E1,3.0633392E0,4.0880356E0,4.8908947E1,4.9763985E1,3.9620102E1,4.7373734E0,6.824585E0,1.9773952E1,9.275076E0,2.7851173E1,0E0,0E0,1.5988295E1,4.531479E-1,2.5470856E1,1.0688791E1,3.9548225E0,7.9272623E0,0E0,0E0,3.0811174E1,1.3654069E1,7.0311394E0,0E0,0E0,0E0,6.616076E1,1.2161919E1,2.247674E1,6.880623E1,8.405174E0,3.449913E1,4.2273903E0,1.5803757E0,2.702736E0,8.832399E0,3.7986397E1,2.2438694E1,1.452289E1,9.201445E0,7.59883E1,5.481606E1,0E0,0E0,0E0,0E0,0E0,0E0,0E0,0E0,0E0,0E0,0E0,0E0,0E0,0E0,0E0,0E0,0E0,0E0,0E0,0E0,0E0,0E0,0E0,0E0,0E0,0E0,0E0,0E0,0E0,0E0,0E0,0E0,0E0,0E0,0E0,0E0,0E0,0E0,0E0,0E0,0E0,0E0,0E0,0E0,0E0,0E0,0E0,0E0,0E0,0E0],"parents":[2147483647,0,0,1,1,2,2,3,3,4,4,5,5,6,6,7,7,8,8,9,9,10,10,11,11,12,12,13,13,14,14,15,15,16,16,17,17,18,18,19,19,20,20,21,21,22,22,23,23,24,24,25,25,26,26,27,27,28,28,29,29,30,30,33,33,34,34,35,35,36,36,37,37,38,38,41,41,42,42,43,43,47,47,48,48,49,49,50,50,51,51,52,52,53,53,54,54,55,55,56,56,57,57,58,58,59,59,60,60,61,61,62,62],"right_children":[2,4,6,8,10,12,14,16,18,20,22,24,26,28,30,32,34,36,38,40,42,44,46,48,50,52,54,56,58,60,62,-1,-1,64,66,68,70,72,74,-1,-1,76,78,80,-1,-1,-1,82,84,86,88,90,92,94,96,98,100,102,104,106,108,110,112,-1,-1,-1,-1,-1,-1,-1,-1,-1,-1,-1,-1,-1,-1,-1,-1,-1,-1,-1,-1,-1,-1,-1,-1,-1,-1,-1,-1,-1,-1,-1,-1,-1,-1,-1,-1,-1,-1,-1,-1,-1,-1,-1,-1,-1,-1,-1,-1,-1,-1],"split_conditions":[6.658905E-4,-3.0853411E-2,-3.3029728E-2,1.9839143E-2,-1.5679302E-2,-2.4393307E-1,3.764871E-2,2.6368324E-2,2.235187E-2,4.179765E-2,9.414556E-2,-3.389288E-1,1.4261168E-1,-7.289465E-2,-9.6197175E-3,7.378061E-2,-2.9025832E-1,-4.0372103E-2,2.1051006E-1,-1.35669885E-2,1.688273E-1,1.8699346E-2,2.3939091E-1,-4.270545E-1,1.7296957E-2,2.6351646E-1,8.328312E-2,-2.228164E-2,-1.2174275E-1,-2.8667782E-2,1.6972566E-1,8.536548E-2,-1.7714171E-1,-1.6274938E-1,-6.25157E-4,6.439791E-5,1.807411E-1,-8.148507E-2,-3.4638524E-2,-2.9376134E-1,-6.497812E-2,-1.2112454E-2,2.264296E-1,-2.9952714E-1,1.0553241E-1,4.454764E-2,-1.3900714E-1,-4.3320864E-1,1.6368358E-1,-7.373413E-1,1.3443844E-2,4.591083E-1,1.8271856E-1,-2.4665372E-1,-2.424534E-1,-3.1764224E-1,8.2357004E-2,1.2322543E-1,-8.4826134E-2,-3.1004754E-1,2.4196168E-2,1.485381E-1,2.4445537E-1,1.0184022E-1,-1.8069403E-1,1.13330916E-1,2.8320113E-2,5.629951E-4,-3.6995065E-1,-9.7535945E-2,5.6803104E-2,1.0908357E-1,1.06352065E-2,-1.14434816E-1,3.763361E-2,9.998856E-2,9.072664E-3,-1.6557145E-1,8.31448E-2,1.6146434E-2,8.00151E-2,1.5053572E-2,-8.570353E-2,3.8651463E-2,9.3547836E-2,1.0097803E-1,-1.9790044E-1,-1.9369294E-1,1.3763121E-2,1.0524352E-1,-1.0257013E-1,-4.2280856E-1,1.2331597E-2,-1.24029875E-1,7.042347E-2,5.586778E-2,1.07888095E-1,-3.6316365E-2,9.984111E-2,-1.909876E-1,7.7655934E-2,-2.3835674E-1,2.4776688E-2,9.358261E-2,1.1271511E-2,-2.672943E-2,9.841325E-2,-5.6830484E-2,1.1846204E-1,-3.0329302E-2,-2.5902304E-1,5.0833292E-2,-3.728296E-2],"split_indices":[36,85,12,62,85,10,29,61,62,89,89,70,3,76,18,89,10,85,92,12,25,81,4,28,62,1,75,77,73,12,2,0,0,53,18,36,56,76,63,0,0,18,79,9,0,0,0,28,50,5,24,35,2,0,10,9,6,25,34,15,60,93,71,0,0,0,0,0,0,0,0,0,0,0,0,0,0,0,0,0,0,0,0,0,0,0,0,0,0,0,0,0,0,0,0,0,0,0,0,0,0,0,0,0,0,0,0,0,0,0,0,0,0],"split_type":[0,0,0,0,0,0,0,0,0,0,0,0,0,0,0,0,0,0,0,0,0,0,0,0,0,0,0,0,0,0,0,0,0,0,0,0,0,0,0,0,0,0,0,0,0,0,0,0,0,0,0,0,0,0,0,0,0,0,0,0,0,0,0,0,0,0,0,0,0,0,0,0,0,0,0,0,0,0,0,0,0,0,0,0,0,0,0,0,0,0,0,0,0,0,0,0,0,0,0,0,0,0,0,0,0,0,0,0,0,0,0,0,0],"sum_hessian":[3.326749E3,5.648956E2,2.7618533E3,1.7424089E2,3.9065472E2,1.4421494E3,1.3197039E3,7.685309E1,9.73878E1,2.827387E2,1.07916016E2,1.332338E3,1.0981145E2,4.9065005E2,8.2905383E2,4.0201163E0,7.283297E1,3.4575207E1,6.28126E1,2.8357818E0,2.7990292E2,1.047838E2,3.132221E0,1.2450074E3,8.733057E1,2.5065994E1,8.474545E1,4.7664963E1,4.429851E2,6.259952E1,7.664543E2,2.59012E0,1.4299965E0,1.4876444E1,5.7956528E1,7.6506095E0,2.6924597E1,4.2759247E1,2.0053352E1,1.6755038E0,1.1602781E0,2.6882602E2,1.1076891E1,8.2920334E1,2.1863457E1,1.9437927E0,1.1884283E0,1.079662E3,1.6534541E2,2.4508017E1,6.282255E1,1.8842539E1,6.223454E0,2.5480196E0,8.219743E1,4.4564274E1,3.1006887E0,2.1737991E1,4.212471E2,3.9581573E1,2.3017946E1,7.39237E1,6.9253064E2,1.3483388E1,1.3930558E0,5.6532032E1,1.424494E0,5.958146E0,1.6924633E0,4.6046886E0,2.2319908E1,3.794488E1,4.8143644E0,3.250342E0,1.6803009E1,4.3736107E1,2.2508992E2,8.907368E0,2.1695232E0,2.5254803E1,5.7665535E1,1.01099786E3,6.866415E1,8.1646065E1,8.369935E1,2.2623404E1,1.8846123E0,3.236739E1,3.0455158E1,1.7462997E1,1.3795428E0,2.3531866E0,3.8702674E0,1.1408545E0,1.4071652E0,1.0126287E1,7.207115E1,1.0326277E0,4.3531647E1,1.1719855E0,1.9287031E0,7.924055E0,1.3813937E1,3.527858E1,3.8596854E2,2.6573395E1,1.300818E1,2.878231E0,2.0139715E1,5.5017532E1,1.8906164E1,7.888109E1,6.1364954E2],"tree_param":{"num_deleted":"0","num_feature":"100","num_nodes":"113","size_leaf_vector":"1"}},{"base_weights":[9.816881E-2,6.399092E-2,6.196956E-1,1.6356283E-1,-9.239261E-2,4.2049155E-1,7.826942E-1,5.8077055E-1,9.187185E-2,1.4586417E-1,-2.7349666E-1,6.257932E-1,-1.4174074E-1,6.7499846E-1,1.0295622E0,2.7830508E-1,7.953562E-1,5.2433994E-2,6.12587E-1,-1.3390905E-1,2.9579014E-1,-3.3968434E-1,7.763276E-1,-1.0391264E-1,7.3489594E-1,-1.9753833E0,4.7914362E-1,7.3236924E-1,-5.229027E-1,4.1264096E-1,1.0852788E-1,-4.27209E-1,7.104694E-1,-3.0491602E-1,8.5963154E-1,-3.872865E-2,2.5677928E-1,9.574327E-1,-1.646419E-1,5.4044616E-1,-4.1271475E-1,1.4208217E-1,7.640569E-1,-3.7610316E-1,7.581729E-1,2.3587681E-2,1.0554297E0,7.409299E-1,-1.5615499E0,-2.8114704E-2,7.78399E-1,2.3346057E-2,-2.4535737E0,-6.4773333E-1,8.494024E-1,7.958511E-1,2.8623965E-1,-2.2002533E-1,7.537699E-2,-2.1126783E-2,7.4682035E-2,-2.1004716E-1,1.2836115E-2,4.2421874E-2,8.870571E-2,4.762144E-2,-2.590637E-1,-6.355667E-2,8.8783324E-2,-1.1670213E-2,3.386981E-2,2.7661923E-2,-2.2152816E-1,1.03919365E-1,-4.2888276E-2,-2.645765E-1,2.5036616E-2,7.072904E-2,-1.792105E-1,-1.1664402E-1,-1.6766712E-3,-1.5082706E-3,7.650819E-2,9.779141E-2,-8.5438835E-4,-4.191086E-2,6.741351E-2,1.0791409E-1,-9.307479E-2,-2.9686865E-1,9.539747E-2,-3.0503279E-2,1.15315236E-1,9.561201E-2,1.8830033E-3,1.3167061E-2,-2.2919431E-1,6.229868E-2,1.0536015E-1,-2.4363445E-2,-2.9642197E-1,5.928905E-2,-2.0540749E-1,9.5228665E-2,-1.5921965E-3,5.2807577E-2,1.0349313E-1,7.426464E-2,-1.7929691E-1],"categories":[],"categories_nodes":[],"categories_segments":[],"categories_sizes":[],"default_left":[0,0,0,0,0,0,0,0,0,0,0,0,0,0,0,0,0,0,0,0,0,0,0,0,0,0,0,0,0,0,0,0,0,0,0,0,0,0,0,0,0,0,0,0,0,0,0,0,0,0,0,0,0,0,0,0,0,0,0,0,0,0,0,0,0,0,0,0,0,0,0,0,0,0,0,0,0,0,0,0,0,0,0,0,0,0,0,0,0,0,0,0,0,0,0,0,0,0,0,0,0,0,0,0,0,0,0,0,0],"id":11,"left_children":[1,3,5,7,9,11,13,15,17,19,21,23,25,27,29,31,33,35,37,39,41,43,45,47,49,51,53,55,57,59,-1,61,63,65,67,69,71,73,75,77,79,81,83,85,87,89,91,93,95,-1,97,-1,99,101,103,105,107,-1,-1,-1,-1,-1,-1,-1,-1,-1,-1,-1,-1,-1,-1,-1,-1,-1,-1,-1,-1,-1,-1,-1,-1,-1,-1,-1,-1,-1,-1,-1,-1,-1,-1,-1,-1,-1,-1,-1,-1,-1,-1,-1,-1,-1,-1,-1,-1,-1,-1,-1,-1],"loss_changes":[5.869242E1,4.8184433E1,6.247322E0,5.648837E1,5.1993904E1,1.0858919E1,2.2357178E0,1.7758247E1,3.3120575E1,2.1877634E1,4.7821068E1,5.5325603E0,3.0289003E1,5.8570824E0,6.375923E-1,3.5825523E1,1.1684196E1,2.7986668E1,3.0596462E1,3.45058E1,2.4312296E1,2.605503E1,8.566923E0,1.3213438E1,2.8595772E0,7.6652145E0,8.919397E0,1.93676E0,1.0703639E1,1.03955E0,0E0,4.1991196E1,3.2947197E0,1.8467678E1,7.0098724E0,3.0627703E1,2.3342056E1,9.378723E0,3.74797E1,2.2192978E1,3.8649513E1,2.5143042E1,1.3824562E1,2.8488693E1,1.2402235E1,3.6475487E1,4.315052E0,1.0504718E0,5.1424217E0,0E0,1.8052864E0,0E0,5.604885E0,1.0862936E1,1.3978233E0,3.700985E0,1.1848353E1,0E0,0E0,0E0,0E0,0E0,0E0,0E0,0E0,0E0,0E0,0E0,0E0,0E0,0E0,0E0,0E0,0E0,0E0,0E0,0E0,0E0,0E0,0E0,0E0,0E0,0E0,0E0,0E0,0E0,0E0,0E0,0E0,0E0,0E0,0E0,0E0,0E0,0E0,0E0,0E0,0E0,0E0,0E0,0E0,0E0,0E0,0E0,0E0,0E0,0E0,0E0,0E0],"parents":[2147483647,0,0,1,1,2,2,3,3,4,4,5,5,6,6,7,7,8,8,9,9,10,10,11,11,12,12,13,13,14,14,15,15,16,16,17,17,18,18,19,19,20,20,21,21,22,22,23,23,24,24,25,25,26,26,27,27,28,28,29,29,31,31,32,32,33,33,34,34,35,35,36,36,37,37,38,38,39,39,40,40,41,41,42,42,43,43,44,44,45,45,46,46,47,47,48,48,50,50,52,52,53,53,54,54,55,55,56,56],"right_children":[2,4,6,8,10,12,14,16,18,20,22,24,26,28,30,32,34,36,38,40,42,44,46,48,50,52,54,56,58,60,-1,62,64,66,68,70,72,74,76,78,80,82,84,86,88,90,92,94,96,-1,98,-1,100,102,104,106,108,-1,-1,-1,-1,-1,-1,-1,-1,-1,-1,-1,-1,-1,-1,-1,-1,-1,-1,-1,-1,-1,-1,-1,-1,-1,-1,-1,-1,-1,-1,-1,-1,-1,-1,-1,-1,-1,-1,-1,-1,-1,-1,-1,-1,-1,-1,-1,-1,-1,-1,-1,-1],"split_conditions":[-1.4588004E-2,-3.0704062E-2,-1.104105E-2,3.4079086E-2,3.764871E-2,-5.060123E-2,3.8253048E-3,7.225266E-2,1.13629356E-1,5.9276838E-2,2.6880044E-2,-1.5670358E-1,-4.2195898E-2,3.4018557E-3,-1.0338078E-2,-8.848117E-2,-1.6860585E-1,-2.8435957E-2,1.06460825E-1,-5.264551E-3,-2.330996E-2,3.85231E-2,-3.62541E-2,-1.4060889E-1,1.1346013E-2,-2.253931E-2,-6.3333204E-3,8.245157E-2,-3.012869E-1,3.8512927E-2,1.0852788E-1,1.9928324E-1,2.7269956E-2,-4.2848354E-3,1.3318147E-1,4.1404027E-2,1.4786553E-1,1.1575124E-1,2.214505E-1,8.0488615E-2,-1.6240105E-1,4.4636945E-3,-2.2034599E-2,9.611038E-2,1.7816557E-2,3.1016427E-1,1.4256118E-1,1.7549839E-2,-3.8620904E-1,-2.8114704E-2,1.4521876E-1,2.3346057E-2,-1.7530842E-2,-1.3080266E-1,1.2699749E-1,9.953008E-3,-3.2719964E-1,-2.2002533E-1,7.537699E-2,-2.1126783E-2,7.4682035E-2,-2.1004716E-1,1.2836115E-2,4.2421874E-2,8.870571E-2,4.762144E-2,-2.590637E-1,-6.355667E-2,8.8783324E-2,-1.1670213E-2,3.386981E-2,2.7661923E-2,-2.2152816E-1,1.03919365E-1,-4.2888276E-2,-2.645765E-1,2.5036616E-2,7.072904E-2,-1.792105E-1,-1.1664402E-1,-1.6766712E-3,-1.5082706E-3,7.650819E-2,9.779141E-2,-8.5438835E-4,-4.191086E-2,6.741351E-2,1.0791409E-1,-9.307479E-2,-2.9686865E-1,9.539747E-2,-3.0503279E-2,1.15315236E-1,9.561201E-2,1.8830033E-3,1.3167061E-2,-2.2919431E-1,6.229868E-2,1.0536015E-1,-2.4363445E-2,-2.9642197E-1,5.928905E-2,-2.0540749E-1,9.5228665E-2,-1.5921965E-3,5.2807577E-2,1.0349313E-1,7.426464E-2,-1.7929691E-1],"split_indices":[85,12,85,60,29,76,36,40,89,89,57,45,76,36,85,34,38,63,86,18,12,24,63,34,57,12,18,89,0,60,0,59,29,18,98,61,6,43,4,75,99,81,63,89,57,20,13,62,27,0,25,0,77,78,22,81,0,0,0,0,0,0,0,0,0,0,0,0,0,0,0,0,0,0,0,0,0,0,0,0,0,0,0,0,0,0,0,0,0,0,0,0,0,0,0,0,0,0,0,0,0,0,0,0,0,0,0,0,0],"split_type":[0,0,0,0,0,0,0,0,0,0,0,0,0,0,0,0,0,0,0,0,0,0,0,0,0,0,0,0,0,0,0,0,0,0,0,0,0,0,0,0,0,0,0,0,0,0,0,0,0,0,0,0,0,0,0,0,0,0,0,0,0,0,0,0,0,0,0,0,0,0,0,0,0,0,0,0,0,0,0,0,0,0,0,0,0,0,0,0,0,0,0,0,0,0,0,0,0,0,0,0,0,0,0,0,0,0,0,0,0],"sum_hessian":[3.2939854E3,3.0924468E3,2.015386E2,1.8893934E3,1.2030532E3,9.230745E1,1.09231155E2,2.7601505E2,1.6133784E3,5.1963135E2,6.834219E2,6.753404E1,2.4773409E1,7.865311E1,3.0578054E1,1.15504555E2,1.605105E2,1.5008109E3,1.12567535E2,1.813414E2,3.3828995E2,6.4352625E2,3.989562E1,8.790251E0,5.8743786E1,5.7147155E0,1.9058693E1,7.5429214E1,3.2238903E0,3.229169E0,2.7348885E1,4.388051E1,7.162405E1,8.652477E0,1.5185802E2,1.0383792E3,4.6243182E2,7.78117E1,3.4755836E1,5.2769028E1,1.2857237E2,2.5567003E2,8.2619934E1,6.235005E2,2.0025732E1,1.1084683E1,2.8810934E1,5.876145E0,2.9141061E0,2.1876283E0,5.655616E1,1.1080811E0,4.6066346E0,4.528096E0,1.4530597E1,6.534681E1,1.0082403E1,1.0806524E0,2.143238E0,1.2546165E0,1.9745524E0,1.0244735E1,3.3635773E1,2.8624954E1,4.299909E1,7.0387025E0,1.6137749E0,2.4125612E0,1.4944545E2,8.6116064E2,1.7721843E2,4.5963107E2,2.8007452E0,7.3714615E1,4.0970855E0,4.210167E0,3.054567E1,4.9896755E1,2.8722737E0,4.36102E1,8.496217E1,2.0494427E2,5.072575E1,6.450038E1,1.8119553E1,5.995509E2,2.3949627E1,1.7131124E1,2.894607E0,2.1094725E0,8.975211E0,1.7886412E0,2.7022293E1,4.2773776E0,1.5987674E0,1.1252477E0,1.7888584E0,3.823043E1,1.832573E1,1.1419015E0,3.4647331E0,2.713107E0,1.8149891E0,1.2896723E1,1.6338744E0,3.2337193E1,3.3009617E1,8.794703E0,1.2877008E0],"tree_param":{"num_deleted":"0","num_feature":"100","num_nodes":"109","size_leaf_vector":"1"}},{"base_weights":[8.986112E-2,6.188802E-2,6.557885E-1,-6.306125E-2,1.675208E-1,4.2669615E-1,7.688147E-1,-3.967436E-1,8.360141E-2,3.213244E-1,2.8050946E-2,-2.860749E-1,8.9179975E-1,8.749226E-1,2.6016316E-1,8.741094E-2,-5.4815906E-1,-9.165096E-1,1.11295715E-1,3.740858E-1,-3.899813E-1,3.8542062E-1,-7.663912E-2,-2.3272965E0,1.9510324E-1,9.6456707E-1,3.6161026E-1,1.0061871E-1,7.067003E-1,-1.5879406E0,6.688362E-1,1.1962409E0,-1.7364763E-1,-1.233654E0,-2.9241475E-1,-1.9292514E0,4.524002E-1,-2.3363529E-2,4.172801E-1,3.190047E-1,8.058739E-1,-2.3757617E0,2.5208932E-1,8.265547E-1,-7.460251E-3,6.597418E-1,-1.5185231E-1,-2.8368637E-1,-3.6492303E-2,9.721598E-1,-8.607678E-1,1.9959357E-2,1.0233431E-1,8.4424965E-2,-7.432767E-2,-1.2205111E-1,8.412463E-1,-5.3315967E-2,-1.8941422E-1,8.132562E-1,-7.051922E-2,2.4003884E-2,1.2924764E-1,4.401384E-2,-6.548644E-2,-6.511778E-2,-1.8908845E-1,-1.9598713E-2,-1.3772278E-1,-2.7720237E-1,5.1271446E-2,-1.263534E-1,8.057088E-2,1.3517539E-2,-2.962858E-2,5.7831783E-2,2.1183935E-3,2.1441035E-2,6.582113E-2,3.002184E-2,1.02852024E-1,5.4587007E-2,-3.644061E-1,8.233685E-2,-9.025275E-2,-9.128004E-2,9.338493E-2,-1.0012057E-1,3.4001734E-2,-1.05352536E-1,8.2587235E-2,3.160216E-2,-2.8218338E-2,1.9016704E-2,1.0491764E-1,3.7221547E-2,-2.0848536E-1,1.0173803E-1,3.389042E-2,1.0249879E-1,-2.1111702E-3],"categories":[],"categories_nodes":[],"categories_segments":[],"categories_sizes":[],"default_left":[0,0,0,0,0,0,0,0,0,0,0,0,0,0,0,0,0,0,0,0,0,0,0,0,0,0,0,0,0,0,0,0,0,0,0,0,0,0,0,0,0,0,0,0,0,0,0,0,0,0,0,0,0,0,0,0,0,0,0,0,0,0,0,0,0,0,0,0,0,0,0,0,0,0,0,0,0,0,0,0,0,0,0,0,0,0,0,0,0,0,0,0,0,0,0,0,0,0,0,0,0],"id":12,"left_children":[1,3,5,7,9,11,13,15,17,19,21,23,25,27,29,31,33,35,37,39,41,43,45,47,49,51,53,-1,55,57,59,61,63,65,67,69,71,73,75,77,79,81,83,85,87,89,91,-1,-1,93,95,-1,-1,-1,-1,-1,97,-1,-1,99,-1,-1,-1,-1,-1,-1,-1,-1,-1,-1,-1,-1,-1,-1,-1,-1,-1,-1,-1,-1,-1,-1,-1,-1,-1,-1,-1,-1,-1,-1,-1,-1,-1,-1,-1,-1,-1,-1,-1,-1,-1],"loss_changes":[5.1597256E1,4.104992E1,3.6474228E0,6.9778564E1,3.6139774E1,1.7815271E1,5.2538834E0,3.1960121E1,2.754576E1,3.021878E1,3.3135162E1,2.1741241E1,8.972244E-1,1.1351547E0,1.5376638E1,3.04775E1,5.779782E1,3.8036236E1,3.977275E1,1.7496986E1,7.177387E1,3.4781918E1,3.805122E1,3.176361E0,1.5983845E1,1.04566E0,3.5590785E0,0E0,1.1400122E1,1.9433212E-1,3.7930284E0,1.535183E0,2.5546368E1,3.31566E1,2.5140608E1,3.3521633E1,8.4197645E0,2.907651E1,1.880251E1,2.340609E1,9.125359E0,5.2885513E1,2.9164114E1,1.8494072E1,3.7330097E1,1.8997435E1,3.8049946E1,0E0,0E0,4.6926022E-1,1.3388983E1,0E0,0E0,0E0,0E0,0E0,3.0162601E0,0E0,0E0,2.6973171E0,0E0,0E0,0E0,0E0,0E0,0E0,0E0,0E0,0E0,0E0,0E0,0E0,0E0,0E0,0E0,0E0,0E0,0E0,0E0,0E0,0E0,0E0,0E0,0E0,0E0,0E0,0E0,0E0,0E0,0E0,0E0,0E0,0E0,0E0,0E0,0E0,0E0,0E0,0E0,0E0,0E0],"parents":[2147483647,0,0,1,1,2,2,3,3,4,4,5,5,6,6,7,7,8,8,9,9,10,10,11,11,12,12,13,13,14,14,15,15,16,16,17,17,18,18,19,19,20,20,21,21,22,22,23,23,24,24,25,25,26,26,28,28,29,29,30,30,31,31,32,32,33,33,34,34,35,35,36,36,37,37,38,38,39,39,40,40,41,41,42,42,43,43,44,44,45,45,46,46,49,49,50,50,56,56,59,59],"right_children":[2,4,6,8,10,12,14,16,18,20,22,24,26,28,30,32,34,36,38,40,42,44,46,48,50,52,54,-1,56,58,60,62,64,66,68,70,72,74,76,78,80,82,84,86,88,90,92,-1,-1,94,96,-1,-1,-1,-1,-1,98,-1,-1,100,-1,-1,-1,-1,-1,-1,-1,-1,-1,-1,-1,-1,-1,-1,-1,-1,-1,-1,-1,-1,-1,-1,-1,-1,-1,-1,-1,-1,-1,-1,-1,-1,-1,-1,-1,-1,-1,-1,-1,-1,-1],"split_conditions":[-1.332351E-2,9.8946124E-2,2.7865386E-2,-8.820083E-2,1.5691708E-1,-1.35669885E-2,8.245157E-2,2.0402756E-2,-3.674661E-1,-3.7783107E-1,-1.7684665E-1,2.79033E-2,3.6493342E-4,2.9944738E-2,1.0955304E-1,-1.0046032E-1,5.1971212E-2,1.9676475E-1,7.3089406E-2,1.1675759E-2,-3.9971662E-1,1.3843167E-1,4.708965E-2,5.4262806E-2,4.773991E-2,-8.398954E-2,3.5029263E-3,1.0061871E-1,1.4739881E-1,-1.5729739E-1,-4.8023763E-1,-3.5329614E-2,1.5940213E-1,1.6323051E-1,1.4384207E-1,4.136677E-2,4.6010476E-1,1.1421892E-1,7.236875E-2,-7.980276E-2,-2.9989462E-2,1.2423951E-1,8.4498525E-3,-4.7492376E-1,4.091812E-1,-1.8558292E-1,-1.30174095E-2,-2.8368637E-1,-3.6492303E-2,1.7292583E-2,4.9554436E-3,1.9959357E-2,1.0233431E-1,8.4424965E-2,-7.432767E-2,-1.2205111E-1,2.7375876E-3,-5.3315967E-2,-1.8941422E-1,2.795706E-1,-7.051922E-2,2.4003884E-2,1.2924764E-1,4.401384E-2,-6.548644E-2,-6.511778E-2,-1.8908845E-1,-1.9598713E-2,-1.3772278E-1,-2.7720237E-1,5.1271446E-2,-1.263534E-1,8.057088E-2,1.3517539E-2,-2.962858E-2,5.7831783E-2,2.1183935E-3,2.1441035E-2,6.582113E-2,3.002184E-2,1.02852024E-1,5.4587007E-2,-3.644061E-1,8.233685E-2,-9.025275E-2,-9.128004E-2,9.338493E-2,-1.0012057E-1,3.4001734E-2,-1.05352536E-1,8.2587235E-2,3.160216E-2,-2.8218338E-2,1.9016704E-2,1.0491764E-1,3.7221547E-2,-2.0848536E-1,1.0173803E-1,3.389042E-2,1.0249879E-1,-2.1111702E-3],"split_indices":[85,6,60,76,25,12,89,62,97,23,38,86,18,57,43,76,29,93,40,81,64,6,29,31,43,37,81,0,50,38,28,77,16,4,31,60,30,25,86,76,77,31,36,70,1,73,18,0,0,29,81,0,0,0,0,0,36,0,0,16,0,0,0,0,0,0,0,0,0,0,0,0,0,0,0,0,0,0,0,0,0,0,0,0,0,0,0,0,0,0,0,0,0,0,0,0,0,0,0,0,0],"split_type":[0,0,0,0,0,0,0,0,0,0,0,0,0,0,0,0,0,0,0,0,0,0,0,0,0,0,0,0,0,0,0,0,0,0,0,0,0,0,0,0,0,0,0,0,0,0,0,0,0,0,0,0,0,0,0,0,0,0,0,0,0,0,0,0,0,0,0,0,0,0,0,0,0,0,0,0,0,0,0,0,0,0,0,0,0,0,0,0,0,0,0,0,0,0,0,0,0,0,0,0,0],"sum_hessian":[3.260871E3,3.1083389E3,1.5253204E2,1.4241571E3,1.6841818E3,5.196982E1,1.0056222E2,4.3431406E2,9.898431E2,8.003136E2,8.8386816E2,2.067315E1,3.1296669E1,8.2609314E1,1.7952908E1,1.035698E2,3.3074426E2,2.5806637E1,9.6403644E2,7.454906E2,5.482301E1,1.9965274E2,6.8421545E2,3.2117624E0,1.7461386E1,2.6799244E1,4.497425E0,4.360381E1,3.90055E1,2.7284942E0,1.5224414E1,1.9054544E1,8.451526E1,8.8827614E1,2.4191664E2,1.4597692E1,1.1208944E1,6.700715E2,2.9396497E2,6.626929E2,8.279773E1,1.2735332E1,4.2087677E1,9.353078E1,1.06121956E2,6.2688347E1,6.215271E2,2.1959214E0,1.015841E0,1.0104426E1,7.356959E0,2.225825E0,2.457342E1,3.2942972E0,1.2031279E0,2.0187001E0,3.69868E1,1.2306038E0,1.4978902E0,1.4145721E1,1.078692E0,2.061876E0,1.6992668E1,3.7179115E1,4.7336143E1,4.8147373E1,4.0680244E1,2.2325266E2,1.866398E1,1.0751849E1,3.845843E0,1.4739647E0,9.73498E0,4.241753E2,2.4589618E2,2.086683E2,8.529668E1,5.0775787E2,1.5493503E2,2.60297E1,5.6768032E1,4.027427E0,8.707905E0,2.83484E1,1.3739279E1,4.998154E0,8.853262E1,2.7006155E1,7.91158E1,5.069205E0,5.761914E1,1.3510184E2,4.8642526E2,1.2169734E0,8.887453E0,4.011861E0,3.345098E0,2.6625834E1,1.0360968E1,1.1100391E1,3.04533E0],"tree_param":{"num_deleted":"0","num_feature":"100","num_nodes":"101","size_leaf_vector":"1"}},{"base_weights":[8.239244E-2,3.7730095E-1,3.39904E-2,7.4853617E-1,2.7117988E-1,1.4082043E-1,-8.009234E-2,2.4589442E-2,7.8906274E-1,3.3321217E-1,-7.0007557E-1,9.5084324E-2,7.2444075E-1,1.3446781E-1,-2.0465226E-1,8.5793726E-2,-1.14111304E-1,5.8330256E-1,1.0060812E0,9.462734E-1,2.5374612E-1,4.749825E-1,-1.4582046E0,-1.6333989E0,1.08283505E-1,7.867303E-2,9.139742E-1,-1.1084032E-1,3.2708952E-1,4.0539792E-1,-2.5244814E-1,-2.0598607E0,8.2928014E-1,1.0473187E-1,-3.3986438E-2,-1.4274788E-2,1.0627182E0,3.181733E-1,-3.0098027E-1,9.098695E-1,-1.2296285E-1,7.777151E-2,-2.0129745E0,1.7097086E-1,-3.463569E-1,1.1468661E-1,-2.5242132E-1,-2.2884839E0,5.9452176E-1,-1.362964E-1,9.8810124E-1,-2.573053E-1,7.67267E-1,2.97271E-2,5.5281353E-1,6.270051E-2,8.816641E-1,-3.1372285E-1,2.0287289E-1,-3.502548E-1,6.688E-2,8.62416E-2,-2.980797E-2,1.08722925E-1,3.007761E-2,6.263291E-2,8.364547E-3,-6.950712E-2,8.878476E-2,9.927466E-2,2.4445644E-2,6.077833E-2,-2.3715447E-1,7.276322E-2,-1.0894165E-1,6.1340537E-3,4.8447028E-2,6.0885794E-2,-3.528609E-1,-1.249172E-1,9.305673E-2,-1.9086441E-1,9.244615E-2,1.0918019E-1,6.337392E-2,-1.933782E-2,-3.3773026E-1,-9.908558E-2,8.832054E-2,7.120964E-2,-2.9486084E-2,1.5998643E-2,8.660393E-2,7.397125E-2,-2.0570277E-1,1.15981124E-1,-5.173369E-2,-2.7994553E-2,-1.5020385E-1,-6.676128E-2,5.6215025E-2],"categories":[],"categories_nodes":[],"categories_segments":[],"categories_sizes":[],"default_left":[0,0,0,0,0,0,0,0,0,0,0,0,0,0,0,0,0,0,0,0,0,0,0,0,0,0,0,0,0,0,0,0,0,0,0,0,0,0,0,0,0,0,0,0,0,0,0,0,0,0,0,0,0,0,0,0,0,0,0,0,0,0,0,0,0,0,0,0,0,0,0,0,0,0,0,0,0,0,0,0,0,0,0,0,0,0,0,0,0,0,0,0,0,0,0,0,0,0,0,0,0],"id":13,"left_children":[1,3,5,7,9,11,13,15,17,19,21,23,25,27,29,-1,-1,31,33,35,37,39,41,43,45,47,49,51,53,55,57,59,61,-1,-1,-1,63,65,67,69,-1,-1,71,73,-1,75,-1,77,79,81,83,85,87,89,91,93,95,97,99,-1,-1,-1,-1,-1,-1,-1,-1,-1,-1,-1,-1,-1,-1,-1,-1,-1,-1,-1,-1,-1,-1,-1,-1,-1,-1,-1,-1,-1,-1,-1,-1,-1,-1,-1,-1,-1,-1,-1,-1,-1,-1],"loss_changes":[4.6085052E1,1.7730423E1,3.383454E1,2.9329796E0,2.1656721E1,3.819603E1,3.591214E1,7.1639314E0,3.666996E0,1.6075947E1,1.9996687E1,3.0532051E1,1.2660366E1,2.3368364E1,2.488427E1,0E0,0E0,3.5048042E1,2.8526726E0,4.9786186E0,1.0740664E1,7.9776363E0,1.8208363E1,3.4095284E1,2.2562746E1,3.1519424E1,6.388489E0,2.8226566E1,1.8566118E1,1.0086082E1,2.2070545E1,2.0659145E1,2.0362167E0,0E0,0E0,0E0,3.1741333E-1,1.9268593E1,1.5378313E1,1.9553614E-1,0E0,0E0,1.1805191E1,5.0456076E0,0E0,2.5991968E1,0E0,1.8767807E1,1.4218418E1,1.3372712E1,2.0698013E0,3.6750248E1,7.276642E0,2.6904522E1,1.921925E1,5.4922375E1,1.0687759E1,2.750039E1,2.982573E1,0E0,0E0,0E0,0E0,0E0,0E0,0E0,0E0,0E0,0E0,0E0,0E0,0E0,0E0,0E0,0E0,0E0,0E0,0E0,0E0,0E0,0E0,0E0,0E0,0E0,0E0,0E0,0E0,0E0,0E0,0E0,0E0,0E0,0E0,0E0,0E0,0E0,0E0,0E0,0E0,0E0,0E0],"parents":[2147483647,0,0,1,1,2,2,3,3,4,4,5,5,6,6,7,7,8,8,9,9,10,10,11,11,12,12,13,13,14,14,17,17,18,18,19,19,20,20,21,21,22,22,23,23,24,24,25,25,26,26,27,27,28,28,29,29,30,30,31,31,32,32,36,36,37,37,38,38,39,39,42,42,43,43,45,45,47,47,48,48,49,49,50,50,51,51,52,52,53,53,54,54,55,55,56,56,57,57,58,58],"right_children":[2,4,6,8,10,12,14,16,18,20,22,24,26,28,30,-1,-1,32,34,36,38,40,42,44,46,48,50,52,54,56,58,60,62,-1,-1,-1,64,66,68,70,-1,-1,72,74,-1,76,-1,78,80,82,84,86,88,90,92,94,96,98,100,-1,-1,-1,-1,-1,-1,-1,-1,-1,-1,-1,-1,-1,-1,-1,-1,-1,-1,-1,-1,-1,-1,-1,-1,-1,-1,-1,-1,-1,-1,-1,-1,-1,-1,-1,-1,-1,-1,-1,-1,-1,-1],"split_conditions":[3.013688E-4,5.4606427E-3,-3.3029728E-2,-4.444249E-2,2.0082738E-1,-2.4393307E-1,3.764871E-2,-4.6145003E-2,9.8470435E-2,-1.6366796E-1,-1.8373898E-1,1.948506E-1,1.4261168E-1,2.8213926E-3,-9.6197175E-3,8.5793726E-2,-1.14111304E-1,-3.3334333E-1,7.085318E-2,2.8252028E-2,-2.7133094E-3,1.4355859E-1,3.7022272E-1,8.2223415E-2,-1.8755679E-1,-2.007293E-1,8.523488E-2,3.3267584E-2,5.3706333E-2,-3.1004754E-1,2.6094656E-2,1.6054998E-1,2.271445E-4,1.0473187E-1,-3.3986438E-2,-1.4274788E-2,1.09732516E-1,1.8201712E-1,5.86636E-2,-1.8387006E-1,-1.2296285E-1,7.777151E-2,-3.6050994E-2,-1.9249511E-1,-3.463569E-1,-2.7921265E-2,-2.5242132E-1,2.583533E-1,-3.505439E-2,1.3795504E-1,5.510338E-1,9.585347E-2,4.4363807E-3,1.1477637E-1,-2.0878628E-1,-4.413464E-1,-2.514583E-1,2.5429277E-2,-3.2186624E-2,-3.502548E-1,6.688E-2,8.62416E-2,-2.980797E-2,1.08722925E-1,3.007761E-2,6.263291E-2,8.364547E-3,-6.950712E-2,8.878476E-2,9.927466E-2,2.4445644E-2,6.077833E-2,-2.3715447E-1,7.276322E-2,-1.0894165E-1,6.1340537E-3,4.8447028E-2,6.0885794E-2,-3.528609E-1,-1.249172E-1,9.305673E-2,-1.9086441E-1,9.244615E-2,1.0918019E-1,6.337392E-2,-1.933782E-2,-3.3773026E-1,-9.908558E-2,8.832054E-2,7.120964E-2,-2.9486084E-2,1.5998643E-2,8.660393E-2,7.397125E-2,-2.0570277E-1,1.15981124E-1,-5.173369E-2,-2.7994553E-2,-1.5020385E-1,-6.676128E-2,5.6215025E-2],"split_indices":[36,24,12,85,79,10,29,85,6,53,45,2,3,36,18,0,0,46,60,57,18,75,1,43,84,41,75,60,43,15,57,13,36,0,0,0,89,93,89,38,0,0,63,84,0,77,0,1,85,98,90,6,24,59,10,82,27,57,12,0,0,0,0,0,0,0,0,0,0,0,0,0,0,0,0,0,0,0,0,0,0,0,0,0,0,0,0,0,0,0,0,0,0,0,0,0,0,0,0,0,0],"split_type":[0,0,0,0,0,0,0,0,0,0,0,0,0,0,0,0,0,0,0,0,0,0,0,0,0,0,0,0,0,0,0,0,0,0,0,0,0,0,0,0,0,0,0,0,0,0,0,0,0,0,0,0,0,0,0,0,0,0,0,0,0,0,0,0,0,0,0,0,0,0,0,0,0,0,0,0,0,0,0,0,0,0,0,0,0,0,0,0,0,0,0,0,0,0,0,0,0,0,0,0,0],"sum_hessian":[3.2284607E3,4.542103E2,2.7742502E3,9.96297E1,3.545806E2,1.4325443E3,1.3417059E3,5.366791E0,9.426291E1,3.3391122E2,2.0669369E1,1.329518E3,1.0302636E2,4.927838E2,8.489221E2,3.2834826E0,2.0833082E0,5.027953E1,4.398338E1,3.7063953E1,2.968473E2,8.252277E0,1.2417091E1,9.145378E0,1.3203726E3,2.369822E1,7.932814E1,2.1693576E2,2.7584805E2,6.113493E1,7.8778723E2,3.6529043E0,4.662663E1,4.289114E1,1.09224E0,3.5584564E0,3.3505497E1,2.6634033E2,3.050693E1,6.946332E0,1.3059449E0,2.3885434E0,1.0028548E1,5.0616574E0,4.08372E0,1.3181229E3,2.2496781E0,3.6254046E0,2.0072815E1,5.1744933E0,7.415365E1,1.8653021E2,3.0405554E1,1.1952324E2,1.5632481E2,3.6210968E1,2.4923962E1,6.946199E2,9.316731E1,2.2039995E0,1.4489048E0,4.5523586E1,1.1030391E0,3.2047626E1,1.4578704E0,1.14380486E2,1.5195987E2,2.3223707E1,7.2832212E0,5.7395477E0,1.2067845E0,1.1233153E0,8.905233E0,3.8041933E0,1.2574644E0,1.1529595E3,1.6516342E2,1.2392175E0,2.3861868E0,2.6756659E0,1.739715E1,1.6381311E0,3.5363622E0,5.575612E1,1.839753E1,1.838257E2,2.7045112E0,1.4141754E0,2.8991379E1,3.814292E1,8.138031E1,7.00205E1,8.630432E1,2.7938751E1,8.272219E0,2.0933056E1,3.9909055E0,6.766228E2,1.7997112E1,2.696826E1,6.619905E1],"tree_param":{"num_deleted":"0","num_feature":"100","num_nodes":"101","size_leaf_vector":"1"}},{"base_weights":[7.522827E-2,5.042009E-2,6.1328155E-1,2.0675845E-1,-1.6706256E-2,7.2584426E-1,3.6988848E-1,4.592187E-2,3.806396E-1,5.956962E-1,-3.9433643E-2,8.3120763E-1,2.2360033E-1,-3.4989923E-1,8.7686795E-1,-2.8857975E0,1.14795536E-1,8.3654773E-1,2.2301048E-1,2.7803135E-1,1.0416465E0,-1.752113E-1,8.575647E-2,1.0380856E-1,7.1714735E-1,-1.4622107E0,6.3691217E-1,-2.4121061E-1,4.581046E-2,9.6336216E-1,3.274508E-1,-3.4430745E0,6.769359E-2,1.894001E-1,-8.127573E-1,1.072172E0,1.08662784E-1,4.8509493E-1,-4.8582524E-2,9.972856E-1,-3.4120706E-1,1.5569642E-2,1.070559E-1,-2.791302E-1,7.671543E-2,8.680594E-3,5.451979E-1,7.628275E-1,-6.905412E-2,-2.590168E-2,-1.8038325E-1,7.884969E-1,-6.902283E-2,-5.484004E-1,9.6817546E-2,2.1020098E-2,9.9751495E-2,8.227596E-2,-7.216006E-2,-6.349092E-2,-3.763357E-1,7.852549E-2,4.7903378E-3,1.5879521E-2,-2.2394367E-1,6.093024E-2,1.12516604E-1,6.06487E-2,-1.5285844E-1,5.9247542E-2,-5.5689987E-2,2.2900736E-2,-1.3589826E-1,-8.047279E-2,1.13021865E-1,-2.471114E-1,2.4232063E-2,4.710273E-2,-3.338645E-2,1.5264145E-2,-1.1103546E-1,-3.973891E-3,5.7466447E-2,9.375661E-2,2.4059173E-2,5.712665E-2,9.706244E-2,1.0081204E-1,1.5081916E-3,3.6983967E-2,-2.3672836E-1],"categories":[],"categories_nodes":[],"categories_segments":[],"categories_sizes":[],"default_left":[0,0,0,0,0,0,0,0,0,0,0,0,0,0,0,0,0,0,0,0,0,0,0,0,0,0,0,0,0,0,0,0,0,0,0,0,0,0,0,0,0,0,0,0,0,0,0,0,0,0,0,0,0,0,0,0,0,0,0,0,0,0,0,0,0,0,0,0,0,0,0,0,0,0,0,0,0,0,0,0,0,0,0,0,0,0,0,0,0,0,0],"id":14,"left_children":[1,3,5,7,9,11,13,15,17,19,21,23,25,27,29,31,33,35,37,39,41,43,45,-1,47,49,51,-1,53,55,57,59,-1,61,63,65,67,69,71,73,75,-1,-1,77,79,81,83,85,-1,-1,-1,87,-1,89,-1,-1,-1,-1,-1,-1,-1,-1,-1,-1,-1,-1,-1,-1,-1,-1,-1,-1,-1,-1,-1,-1,-1,-1,-1,-1,-1,-1,-1,-1,